0.07663599
-0.07754994
-0.061217826
0.039343067
0.03745366
-0.07119741
-0.048495673
0.017913772
-0.05183682
-0.04734018
0.1148546
-0.0027103566
0.108020805
0.10265018
-0.02837615
0.08643207
0.059707105
-0.08623272
0.10856354
-0.027194245
0.030176712
0.03152298
-0.060311384
0.124263845
-0.023522535
0.0948658
-0.035515986
-0.029776182
-0.03776703
0.11458562
-0.023341494
0.06346762
-0.061035655
0.09171623
0.05432962
0.085520834
-0.052481927
-0.11223986
-0.044811778
-0.03664355
0.08273998
-0.0712223
0.08211718
0.043548387
0.039076477
-0.073103935
0.03067306
0.040531974
0.1109776
0.06584448
-0.03387418
0.009736402
-0.024210533
-0.095312625
-0.009030515
0.042124152
-0.11390779
0.052686557
-0.010107666
0.11635315
-0.001114429
0.073770866
0.10781522
0.11200505
-0.02449259
-0.027988862
-0.11148244
0.047933023
-0.02941389
0.053535096
-0.09453409
0.057264525
-0.0021238779
0.1216167
-0.009089753
0.024332833
-0.018231517
0.016414728
-0.050589073
0.019606013
-0.10760554
-0.030334907
0.015783656
0.043396194
-0.013208061
0.1208986
-0.020110909
0.047612168
-0.03485467
0.051892918
-0.035281714
-0.006398895
-0.02127235
-0.0017974883
0.077873304
0.02407447
0.08955698
0.076741524
0.04751702
0.0125096915
-0.030091267
0.06686057
-0.024304707
0.062279567
0.018567707
0.06376035
-0.0031186799
0.0118622435
-0.029926002
-0.032297537
0.009396336
0.09698084
-0.047415044
0.038231026
0.53620076
0.044050723
0.11946982
0.30151212
-0.030268144
-0.08746419
-0.012175905
0.05932655
-0.02856823
0.044300966
-0.093279526
-0.021580596
0.019444145
-0.082761824
