0.004253466
-0.09708625
0.013179109
0.039148025
-0.1740951
0.11213553
-0.055721376
-0.16955492
-0.051307943
0.12887247
0.18383615
-0.08296265
0.16701473
-0.0067786877
-0.20681852
0.0032177274
0.29891327
-0.03982692
0.015481454
0.16508515
0.12580611
0.04033354
-0.13419756
0.089959234
0.17958654
-0.014039954
-0.19252628
-0.033877492
0.11715064
-0.18005265
-0.06470688
0.25361562
0.019106857
-0.22491111
0.14956632
0.15095913
-0.028839896
0.2460002
0.33559954
0.20173942
-0.004012683
-0.017090607
0.18327704
-0.025053803
-0.0082981605
-0.11923525
0.09136995
0.049237087
-0.057688348
0.09663214
0.12319455
0.19356176
-0.023528866
0.27627143
0.10761736
0.06622565
0.15340035
0.094401695
-0.06935285
-0.0038794554
0.18509284
0.14510691
0.072705604
0.23692718
-0.08092363
0.14259717
0.12702052
0.021839097
0.017984083
0.033560585
0.037207156
0.05502997
-0.0934484
0.11175139
-0.027028952
-0.021988431
-0.15788049
-0.17467909
0.21049666
0.007606028
-0.18546206
-0.12460303
0.3039009
-0.012241682
-0.037564106
0.056975305
0.010349633
0.020634819
0.12511201
0.40873793
0.21525021
-0.114706956
-0.012169345
0.0038091203
-0.015422894
0.0496952
-0.14039016
0.4731549
0.009962831
0.09843799
-0.23715305
0.09722289
0.24237692
0.12826654
0.16263005
0.16394895
0.0115219895
-0.04537602
-0.16714653
-0.015246449
-0.090425625
0.1101739
0.22732577
0.23130554
0.07263525
0.051064573
-0.10310664
-0.06486718
0.005698661
-0.13762447
0.15665494
-0.15092409
0.13103433
-0.09589591
0.019595265
-0.19832863
-0.0021702568
-0.16724895
