-0.024455028 0.03009796 -0.055101585 -0.029443726 0.19810712 0.117831565 0.020763095 -0.06286441 0.023382448 0.08015674 0.015807446 0.01485358 -0.078241184 0.028333636 0.021143075 -0.07400767 0.06307161 0.038311824 -0.16880895 -0.12684208 0.08071639 0.12738134 -0.01995471 -0.18715256 0.031590037 0.028252922 0.070000164 0.14719209 0.10361348 0.0121067045 -0.014459743 0.04786145 0.041986734 0.00066950644 -0.05086062 0.037618913 0.21019694 0.23826797 -0.017059311 -0.08361657 0.07426147 -0.13842346 0.015595872 -0.034325175 0.0503211 0.10579188 -0.055271354 -0.056298513 -0.07347446 0.09881288 0.15100707 -0.029829009 -0.021860123 0.033800893 -0.042424444 0.13783133 0.13276547 0.023698043 -0.024264194 0.07329412 0.119510345 0.038419392 0.076171964 0.11905692 0.1231984 0.13776039 0.023152871 0.06603706 -0.039306123 -0.099911824 -0.02577687 -0.014742124 -0.018151974 0.06318947 0.118383564 0.10815786 0.23757644 -0.014221563 0.10882362 0.063097775 0.14668591 -0.16178565 0.21442391 0.02959488 0.20602062 0.12200764 0.028828293 0.09450739 -0.008236712 0.041674618 0.08449288 0.040064603 0.16347955 0.0017554975 0.050491024 0.08237599 -0.033729777 0.1690051 -0.072528124 0.044154808 -0.12811522 0.21432212 0.16328582 0.0897348 0.069335446 0.09224381 -0.00030473233 0.15213624 0.047011115 0.015875556 -0.00566828 0.025149677 0.00013875577 0.025804637 -0.12071133 -0.037139717 -0.0022830267 0.04757555 0.22602136 0.12493041 0.20369032 0.022179617 -0.10938194 0.023425661 0.043019544 -0.01774325 0.014326118 0.08457781
-0.04938199 -0.042048056 0.10953545 -0.16710019 0.03015694 -0.06869072 0.0059740804 0.10801311 0.13119915 -0.032757785 -0.09055219 -0.0099168755 0.012703051 -0.059469294 0.099886134 0.011590234 -0.019366512 -0.004452028 -0.012623239 -0.06294726 0.0061012213 -0.021097455 -0.030206978 1.0714482e-12 -0.000910199 -0.14224574 -0.0010901007 -0.026245011 0.028511105 -0.06291797 0.043027416 -0.25988913 -0.07759324 -0.033573993 -0.053596575 0.046117064 0.07441955 0.020793406 -0.10817165 0.019891862 0.003764546 -0.20621367 -0.008388453 -0.16708677 -0.08439971 -0.13779135 -0.0043154317 0.19998552 0.07722568 0.0050367094 0.115945965 -0.08681733 -0.09585289 0.06693585 -0.06836131 0.005691646 0.056034103 -0.042770833 -0.013266045 2.2737218e-07 0.044783697 -0.12373659 -0.008281335 0.05319652 0.033333823 -0.02431859 0.0051593967 -0.11941196 -0.025882106 -0.08755168 0.064756595 -0.0056171007 0.080043465 -0.00781527 2.446808e-06 0.058268618 -0.043642994 -0.028854975 0.014227974 -0.0004936988 0.00046989243 0.11974209 -0.15129076 -0.01661506 0.04925483 0.05376861 -0.099324524 0.042884164 -0.09755692 -0.0025878523 -0.002144805 -0.095538616 -0.01850264 0.02448467 -0.13138798 0.039063632 -0.00072552427 -0.014484062 -0.010501968 0.051589407 -0.047070883 -0.17162365 -0.09302548 0.03472487 -0.09929227 0.029000904 -0.097609244 0.011379739 0.00830138 -0.10180184 -0.042497292 -0.10818318 0.1014327 -0.065268375 0.015205991 0.047899175 -3.8477132e-36 0.018552978 0.019233288 -0.15138356 0.10501254 -0.010955363 0.070828326 -0.0050675226 -0.15897784 -0.12172824 -0.07398641 0.012539847
0.05814774 -0.043907862 -0.04512268 -0.022007642 0.07452646 -0.016871782 0.022228617 0.06881385 -0.021102278 -0.064058565 0.054584425 -0.023470534 0.11696368 -0.031476118 -0.04315904 0.09804375 -0.0024516473 -0.020569181 0.014588785 0.026104176 -0.10623982 0.07155357 -0.05712596 -0.09377871 -0.10094216 0.0029066058 -0.10082747 -0.12655517 -0.026581224 -0.07833141 0.04444471 -0.2533477 0.06287708 0.045663863 -0.00938159 -0.04299047 -0.13197395 0.1255827 0.08880146 -0.028917603 -0.20177032 -0.0034217956 -0.0064510605 -0.10211477 -0.044420954 0.12595508 0.07387163 -0.13017398 -0.08136202 -0.16353673 -0.068994805 0.048416566 -0.098617695 0.02467691 -0.103774905 0.06045398 -0.13655297 -0.021586811 0.03430322 -0.038552888 -0.05028945 -0.037080016 -0.21435541 -0.073564805 -0.024066776 0.12175065 -0.047169883 0.031003859 -0.10630446 -0.023251543 -0.037609365 -0.096700385 0.033644143 0.012677194 0.005656731 0.08925666 -0.12610649 -0.07687899 -0.091590054 -0.04596686 0.009495555 0.07378724 -0.020099785 -0.025333518 -0.047790583 -0.04379389 -0.19926266 -0.0032615715 -0.054488078 0.05703254 0.03790446 0.089584425 -0.079734124 -0.031306814 0.20080687 -0.10333929 -0.03847156 -0.14754878 -0.014612296 0.020787729 0.07489547 -0.04936294 -0.09360446 0.030132335 0.076224804 -0.15544394 -0.060896855 -0.17038126 -0.053229596 0.018519828 -0.15581168 -0.036196247 0.05598196 -0.009902728 -0.1375596 -0.07808077 -0.020505944 0.048478905 0.102461986 -0.022006892 0.022488013 -0.039107103 0.053585898 -0.09696423 -0.058000043 -0.08396637 -0.08942826 0.029723473
-0.048153326 0.060918782 0.0014250687 0.0029050761 0.084741734 -0.038254466 -0.0471558 0.051954217 0.09158039 0.028629966 -0.1298842 -0.042102117 0.14097247 -0.0035999387 -0.058475934 0.09130907 -0.06461512 0.02695371 -0.04947438 -0.12579928 -0.19773608 0.008899797 0.046780966 -0.08204296 -0.09490868 -0.057603758 0.018091088 -0.036918357 -0.1291016 0.092439584 0.091566876 0.035331286 -0.28176233 -0.042138398 -0.14063142 -0.118476495 -0.19321048 -0.1557249 0.05436119 -0.017880619 -0.06977531 -0.06807136 -0.04695649 -0.010449208 0.062206272 0.11600074 0.09882477 0.00596231 -0.08038026 -0.06595783 -0.06390557 -0.026991412 -0.07372429 0.027576033 0.050920554 -0.04399212 -0.07101085 0.025932305 0.052377746 -0.04229903 -0.0023093391 -0.16483006 -0.036863834 -0.053706497 -0.076208755 0.08640791 0.10877349 -0.090209134 0.05039939 0.0111107975 0.0811398 0.021944901 0.110613145 0.008570188 -0.067500435 -0.066125065 -0.20092642 -0.028451167 -0.17158908 0.05196117 -0.09869167 -0.05543046 -0.11414744 0.0064351177 -0.17540793 -0.035701357 -0.1768731 0.0077201696 -0.06420088 -0.08721434 -0.038957115 -0.18507323 0.007613535 -0.059362438 0.012921983 -0.0455579 -0.00909747 0.059763726 0.04280663 0.031175952 -0.16440177 -0.049545232 0.13287978 -0.14293076 0.025451997 0.061581675 -0.017609099 -0.155747 0.07674431 0.07517951 -0.06248488 0.019279575 -0.07767155 -0.039690796 -0.07505508 -0.19712742 -0.0044297543 -0.098121546 -0.039092995 -0.12672076 -0.17997761 -0.05823148 0.13226476 0.064248435 -0.10994095 -0.13298008 -0.036559056 0.11353803
0.03875493 -0.0029868134 0.06389016 0.14069246 0.089060545 0.023183782 0.016346999 -0.023626458 -0.072682366 -0.106172204 -0.040576424 -0.10693302 0.014992485 0.13607092 0.060840916 0.1828255 0.21281303 -0.06599057 -0.023767747 0.14372559 0.14612736 0.120042026 -0.05148351 0.06372413 0.19162911 0.0095210755 -0.086994246 0.06987001 0.2903189 0.08891349 -0.070288315 0.14600964 -0.03700492 -0.041378524 -0.11257838 0.12977345 0.046530463 0.116779976 0.09968481 -0.011230395 0.072679915 0.13761556 0.12962875 0.10923708 0.113385335 -0.055281863 0.23017287 0.082698554 -0.031640895 0.11301937 0.0051129633 0.14368711 0.08082333 0.18469617 0.08060874 -0.052594397 0.1691401 0.07496369 -0.049820468 0.13667865 0.09749523 -0.033201993 0.026506608 0.1856908 -0.02594424 -0.0105091045 -0.120084405 0.11247576 0.0067663183 -0.027163453 0.008696899 -0.24065606 0.38040832 0.029779522 -0.19600332 0.07165246 -0.09368398 0.07857852 0.1294474 0.06685972 0.13657705 -0.060314596 -0.049630243 0.11221832 0.22369245 0.007157942 0.05212796 0.03565072 0.04430659 0.44580233 0.0481759 -0.0044821175 -0.15346257 0.0089851115 -0.05442848 0.15755281 -0.02648633 0.3000626 0.0711066 0.071290195 0.016695758 -0.009960759 0.13641843 0.07864147 0.12042156 -0.055052485 0.11244001 0.17329092 -0.05716361 0.10987005 0.043071046 -0.06844453 -0.042086184 -0.19630519 -0.028158888 -0.036645368 0.113642596 0.13957845 0.18416332 0.14933844 -0.06034858 -0.017011847 0.073674 0.10348185 -0.017573796 -0.13873225 -0.03413609 -0.052248638
-0.018910391 -0.118630454 0.055728424 -0.14916112 -0.037887637 0.020562652 -0.15055074 0.12997805 -0.06335946 -0.044098012 -0.0034301816 0.0020370043 -0.11011777 0.0985177 -0.11489269 -0.05274264 -0.07487374 -0.026703414 -0.014877214 -0.12498485 -0.17615151 -0.033398587 0.10911399 -0.06417314 -0.084769696 -0.06782016 0.121967725 0.05557479 -0.11085071 0.02161375 0.0005954951 0.07149396 0.05764003 0.0072598793 0.0075544775 0.048147872 0.043261338 -0.014834218 -0.03253568 -0.044016436 -0.024377221 -0.046609223 -0.01568105 0.028667774 0.04278304 -0.035278786 -0.23236944 0.005401568 0.004121559 -0.10649807 0.061850846 -0.026226578 -0.1304786 -0.028137114 0.06174695 -0.017624402 5.3829306e-05 -0.06829718 -0.06975679 0.003844781 -0.04488776 -0.168106 0.017834125 -0.16379638 -0.09414993 0.00043518125 -0.18234397 -0.17259824 -0.064802356 0.030453162 0.0604853 0.13362132 -0.095072165 -0.07922628 -0.27521014 -0.037221283 0.1440938 -0.16493769 -0.07551197 0.0064109387 -0.026628913 0.023699382 0.06583551 0.09684681 -0.08026714 -0.096888885 -0.11240719 -0.053031307 0.004163506 0.010228987 0.033116434 -0.0678717 -0.06965725 -0.12447509 0.1532761 -0.051948827 -0.09488822 0.12776072 -0.039612368 -0.08401973 -0.13974336 0.021132275 0.03251887 -0.10933821 0.058510546 -0.04926225 -0.07878921 0.039175026 0.084836185 -0.019016359 -0.11447992 -0.08441071 -0.0076566646 -0.08196542 0.10656538 -0.02688138 6.8023866e-05 0.1488367 -0.03228039 0.09490785 -0.11694059 -0.10248366 0.045803286 0.008830906 0.02502253 -0.03212399 -0.118567325 0.07255604
-0.10316916 0.1613273 -0.042113412 0.1473272 0.052930087 0.12359375 -0.014603123 0.1271003 -0.112126075 0.10905089 -0.0016309523 0.06381853 0.02979 0.155841 0.019918364 0.17777932 0.081252456 -0.09443281 -0.007280636 0.151793 0.11558359 0.17725696 -0.14294496 -0.09360556 -0.025457647 -0.10050051 -0.0500362 0.14733821 0.16389662 0.18866278 0.03965924 0.0014198391 -0.14287484 0.1448923 0.15726265 0.04989116 -0.013071711 0.13511781 0.017282564 0.12730367 -0.036816634 0.003990166 -0.12649952 -0.036451165 -0.2645293 0.04923402 -0.20210432 -0.12078469 -0.018875336 0.07391031 0.091539696 0.15064633 0.047248535 0.063332744 -0.07568936 0.10795789 -0.059380177 0.106754914 -0.1177878 -0.06722351 0.22356881 -0.0013973062 0.03677598 0.023612412 -0.068623714 -0.13245638 -0.016520884 0.13730827 0.023857223 0.0872243 0.035699744 0.008408817 0.015197083 -0.097252555 0.21541946 -0.115499936 0.017640185 0.16457623 0.059186544 0.1757101 -0.24025105 0.03294747 0.117120236 0.093239 0.1279433 0.085941225 0.12543988 0.0442701 0.044408467 -0.3316161 -0.00996185 0.013095653 -0.06058452 -0.030047733 0.19487599 0.0636397 0.11532899 0.44970104 0.2519159 -0.15652882 -0.014061356 -0.046400312 0.21378794 -0.0022195484 -0.105739385 0.117089696 -0.063833505 0.044915006 -0.074039154 -0.04668991 0.009443299 0.11851377 0.16076802 0.20687781 -0.017683486 -0.054247126 -0.055852424 -0.1262525 0.07586854 0.09768165 -0.010417135 0.10986444 0.14924482 0.18779829 0.27808455 0.10517406 0.14474979 0.13239658
-0.0016291252 -0.12728924 -0.03978883 -0.069624424 -0.015590248 -0.14442796 0.020488206 0.05549961 0.119281024 -0.050141957 -0.13915242 -0.18534428 -0.10362518 -0.017128615 0.07561606 0.06474165 -0.15489586 -0.26782414 0.14753968 0.04025674 -0.050335273 -0.08444882 -0.011859049 -0.06154489 0.04394387 0.006709716 -0.09578216 -0.040743936 -0.090119325 -0.08086207 0.048175406 0.07583426 -0.12947722 -0.08321644 0.010014962 0.04670062 -0.052903853 0.0026908757 0.12811275 0.11741077 -0.065792166 -0.04507716 0.062396612 -0.0876047 -0.028077025 -0.08312649 0.061098438 -0.049968675 -0.03825335 -0.09493677 -0.16074668 0.09038349 0.02034018 -0.17781577 -0.042389005 -0.0239669 0.06504229 0.061815064 0.025258891 0.031054297 -0.08668406 -0.109941445 -0.0268259 0.087571345 -0.050424956 -0.08799126 -0.18706805 -0.07280014 0.029311571 -0.051700126 0.032548778 -0.087078765 -0.005634904 -0.016479516 -0.12296297 0.1321804 0.10233901 -0.061015576 -0.035054572 -0.14878483 -0.00872898 -0.01837031 -0.11826929 -0.18161243 -0.15319863 0.11786234 -0.116029926 -0.16375397 -0.013860383 -0.18954909 -0.0134724025 -0.07874548 0.10620216 -0.18559158 0.05516059 -0.076202035 0.03900914 0.04068451 0.032854814 0.047720883 0.005812272 -0.012003658 -0.019563248 -0.046877805 -0.06812974 -0.12163077 0.05328292 -0.120328374 -0.11483211 0.005265314 0.050085075 -0.067383744 -0.012564555 0.00668959 -0.005342201 0.19940642 0.08415641 -0.0749883 -0.14609987 -0.17979221 0.068202935 0.03543734 -0.039349496 0.18079284 -0.17823797 0.046637274 0.062256884 0.081853375
-0.033757668 -0.035342038 -0.023353621 0.20211773 -0.057530448 -0.009964354 -0.013100318 0.0018966079 -0.043831684 0.010816426 0.067310445 -0.06803163 -0.031794 -0.022491995 -0.091800034 0.01844637 -0.07776849 -0.046671893 -0.12870856 -0.06541202 -0.23005484 -0.16568364 -0.06753882 0.04388595 0.06034279 -0.11230392 -0.13244593 0.118982516 0.08648625 0.050824855 0.013391531 0.08108084 -0.08434652 0.059884053 -0.099934615 -0.12730159 -0.12742229 -0.016341455 -0.030050676 -0.08704357 0.009182232 -0.070957586 -0.044824433 0.015993848 -0.072955854 -0.002794031 0.09061059 0.057965968 -0.08146828 -0.0016519962 0.074384525 -0.050895996 -0.022679327 0.07734411 -0.07766789 0.06631028 -0.00041476297 0.008583617 0.1173192 -0.06670492 0.13588491 -0.08027502 0.045222633 0.03753461 0.008814822 0.07518603 0.006112944 0.07550485 -0.044135746 0.1479821 0.0034712213 0.084344044 -0.0603872 -0.005233295 0.05339221 0.037188604 0.029696112 -0.03817092 -0.0058883303 -0.17340715 0.006735514 -0.14650339 -0.057113286 -0.116271146 0.013380833 0.048919514 -0.20315297 -0.0052362992 0.0041109296 -0.25391838 -0.020220565 -0.17239462 -0.10344769 -0.071744286 0.031538088 -0.18828823 0.12799767 -0.035986695 0.10643077 0.16414577 0.12074247 -0.1449736 -0.123111606 -0.00070242706 -0.17248935 0.04796373 -0.07904976 -0.102874756 -0.0014794233 -0.088673025 0.14998797 -0.0059698885 0.07797087 -0.0064000967 -0.23885071 -0.028786533 -0.059248034 -0.11044508 0.13249458 -0.17931436 -0.008465796 0.01196472 -0.08231664 -0.10300049 -0.078592606 0.05707214 0.061694708 0.022941496
0.20680048 -0.12543677 -0.014215591 -0.08145649 0.00013049625 0.026154954 0.0054768226 0.09496604 0.018354828 -0.14327073 -0.1916595 0.048927866 0.08014424 -0.08595875 0.05503436 0.06515439 -0.041023694 -0.0031886895 -0.09083335 -0.04738735 -0.051465444 -0.025398323 0.100887544 0.19359453 -0.016157566 -0.07392864 0.025778243 0.1010249 -0.16229588 -0.045347407 -0.059792206 0.0054024286 -0.030213546 0.017591111 -0.082597576 -0.15368208 0.048723128 0.09721058 0.024529764 -0.079132386 0.082163304 -0.032984074 0.053096488 -0.05962514 -0.04675546 0.06359578 -0.013656762 -0.08305298 -0.061350204 -0.09390615 -0.09570168 -0.061307006 -0.11043691 0.14265528 -0.15744755 -0.074469805 -0.12788448 -0.07744234 -0.15042153 -0.18317635 -0.1648221 -0.024964653 0.08700406 -0.04277605 -0.13662405 -0.07302717 -0.026547745 0.0079520065 -0.16116546 -0.054413848 -0.071349375 0.012432359 0.043700248 0.026458928 -0.015506838 -0.0031750635 -0.12578626 -0.00069620484 0.0930118 -0.23748386 -0.0105819795 0.030158391 0.06196298 0.027347978 0.13323021 0.16574042 0.056550737 -0.103257984 0.028216396 0.057486005 -0.21427435 -0.071869835 -0.1159413 -0.10850731 -0.02085814 -0.15076502 -0.0061686654 -0.1284892 -0.006876153 0.12273612 0.0916914 -0.1546058 -0.0488642 -0.16995047 0.117866635 0.07888573 -0.06174505 -0.15428326 -0.12767741 0.083353154 0.038615037 0.15770924 0.03655908 -0.029599557 -0.09135209 0.010739377 -0.13293208 -0.069837905 0.005388711 0.08091266 -0.035837118 -0.0982895 -0.12662841 -0.05834595 -0.06919987 -0.071039274 -0.14375803 -0.16680315
0.12150829 0.093058154 0.15159774 0.020464404 0.057425875 -0.01632901 0.032911394 0.002668874 -0.04238286 0.028599575 -0.0017993333 0.063363045 0.17340948 0.21499184 0.106076576 0.09844425 0.12867521 -0.06399566 -0.042607836 -0.061151378 0.08807564 0.14727928 0.19622026 0.06623693 -0.021990592 -0.0454583 0.052969668 0.1332757 0.33569682 0.05427617 0.13370518 0.2912062 0.15106708 0.07550689 0.110434815 0.07503234 -0.05959961 -0.020722518 0.06579257 -0.06854626 0.11061455 0.06128279 -0.037052784 -0.028320352 0.15895665 0.08620639 0.074695274 -0.01404552 0.06781018 0.108850546 0.28035274 0.09387888 0.11142216 -0.012509836 0.06853923 0.004181067 0.035431102 0.055871822 0.009205039 -0.01069574 0.075589396 0.15454443 0.04631331 0.049941443 0.0069258744 0.040850405 -0.04489664 -0.019503405 -0.04297898 -0.035011806 0.09685488 -0.11280646 0.045462962 -0.0042565074 0.25489172 -0.019951638 0.15801296 0.024356695 0.048415653 0.20444082 0.00052150467 0.12758602 0.12189542 0.04650273 -0.18104894 -0.007976212 -0.014602572 0.051383637 0.02484864 -0.5078458 -0.06312062 -0.07083461 0.05578768 0.00016531216 0.032109883 0.11322367 0.027365 0.33457392 -0.072076835 -0.13975476 0.060953896 0.0027544443 -0.030230755 0.10135069 -0.037415717 -0.033923216 -0.026966369 -0.10590902 -0.059507754 -0.042135794 0.07882923 -0.08714364 0.08376955 -0.11759861 -0.15836109 -0.08108181 -0.109466314 0.17221156 0.091487005 0.043899305 0.09400868 -0.010424438 -0.14492114 0.051428426 0.07652565 -0.15129606 0.07111683 0.04516347
0.015331771 0.0067161634 0.104751855 0.07709852 -0.08643227 -0.044463784 -0.23404779 0.020807823 0.013378213 -0.04976196 -0.14945218 0.047129408 -0.08018965 0.059154604 0.14206104 0.15842877 -0.086641654 0.1694614 -0.09036388 -0.016701397 0.03684175 0.0043811807 -0.07060012 0.11292531 -0.077402554 0.016180262 0.0055155535 0.02446888 0.16522732 0.022257734 -0.0822161 0.20070586 0.106191546 0.19771911 -0.15769358 -0.013929289 0.045301724 0.046809413 0.120119095 0.03627141 0.0028152864 0.10424426 -0.051415484 -0.038739905 0.15142137 -0.015248469 -0.15112099 0.09542686 -0.058853738 0.15119901 0.034713417 0.013314711 0.08814991 0.01030405 0.001504245 0.060644854 0.006163354 -0.06920997 -0.15568346 -0.05687229 0.21213917 -0.012717731 0.030108524 -0.023392608 -0.10788583 0.07451762 -0.051869437 0.14281923 -0.05185138 0.021660442 0.1922456 -0.05278992 0.12673885 0.067772105 0.1151742 -0.038299944 -0.02736982 -0.018483955 0.16885903 -0.124228455 0.10243616 -0.0076007266 0.19003083 0.0026751023 0.055538155 0.18366757 0.07535169 -0.07605736 0.026322318 0.17433843 -0.029204099 -0.13776167 0.1460814 -0.09902516 0.021000357 0.13174891 -0.011669625 0.40355033 0.048183676 -0.00042489354 0.10945796 0.0060490863 0.19393449 -0.019388573 -0.065328926 0.112631395 0.042080723 0.08737 -0.064386785 0.120074205 0.13741675 0.038250633 -0.064087585 0.051711477 0.12288331 0.021576434 0.013209627 0.015702162 0.08669034 0.014015026 0.09337047 0.038387824 -0.07774138 -0.050133076 0.09536236 0.11488153 0.013577406 0.06877676
0.018966507 0.10086012 0.087268226 0.16468564 -0.014584224 0.038497996 -0.07928224 0.094706446 0.06150659 0.16104834 0.06181784 0.024804214 -0.063738376 0.11889378 0.05899316 0.024476007 0.09110073 0.00072953396 -0.14215706 0.0879144 0.14568634 0.15457578 0.035826225 0.18791413 0.04876437 0.10898355 0.060495447 0.17496058 0.19268976 0.02405116 -0.10460762 -0.052735344 0.07400754 -0.0691734 -0.12673664 -0.030768083 0.005379914 0.06550748 0.052051008 -0.108662695 0.07407188 -0.0035580015 0.030636383 0.086304486 0.17081693 0.098760724 0.07080161 -0.028580902 0.033464257 0.05313139 0.14045317 0.0010488209 0.10002733 -0.012881815 0.0026833736 -0.05589347 0.038313907 0.21835129 0.04519387 -0.0048325295 -0.080630794 -0.035816833 0.05747994 -0.06767627 -0.033124026 0.030758714 -0.032989703 0.12567316 0.020929882 0.07544959 0.09688724 -0.086862646 0.14264041 0.13116483 0.077189416 -0.10224057 0.126331 0.18292765 0.17208561 -0.04092301 -0.07704936 0.10056491 0.12883563 0.14915216 0.02337422 0.12078959 0.017479675 0.04337479 -0.057035692 -0.68739647 0.028482927 -0.01653192 -0.054671146 0.04465627 0.09361842 0.12580149 0.23021662 0.33412734 0.006029449 -0.07808655 0.06170924 -0.049331684 0.0875259 0.13357857 -0.11778488 0.24581377 -0.021179553 -0.04385827 -0.024300708 0.06348396 0.09223175 -0.0070659583 0.1678012 0.08835989 0.11226689 -0.14912674 0.06417245 0.08873649 -0.06076144 -0.10011058 0.05525379 -0.010548516 -0.021315243 0.0030348687 0.052357975 0.0047987006 -0.00901543 0.092577584
-0.045396827 0.030641623 0.05375842 0.030147297 0.019824302 0.07244685 -0.058074154 0.026537437 -0.06939079 -0.1568799 -0.14992984 0.038589127 0.15086995 0.053309098 0.15107107 0.29477298 0.0064687887 -0.032725006 -0.084826276 -0.11775212 0.18475054 0.17689438 0.20908271 -0.014048844 0.026185011 -0.03478214 0.1397076 0.0926668 0.17349578 -0.004532032 0.049293745 -0.045464844 -0.038807303 0.089418076 0.18624806 -0.025507033 0.1104452 0.059789672 0.11091334 -0.008190245 0.09582883 -0.024695942 0.14047466 0.018380173 0.16699386 0.2432796 -0.03415373 0.027656501 0.04507474 0.14823966 0.15331812 0.15767412 0.0461465 0.17625296 0.09464157 -0.03301509 0.19378698 0.055786848 -0.034745634 -0.012421711 0.14225629 -0.065637544 0.28356364 -0.018869074 0.08612937 0.0971359 -0.021080734 0.040861774 0.18981203 -2.0942723e-05 0.030177606 -0.102892846 0.036895156 -0.01373036 0.08606993 0.00449004 0.13804589 0.030248776 0.13984738 0.068974175 -0.013066904 0.018043349 -0.008747421 0.027469613 0.039439227 -0.023142235 -0.030578274 -0.018371472 0.07425824 0.12190497 -0.07441113 -0.13954797 0.04078075 0.23127146 0.09067191 0.079594724 0.029181503 0.0039565386 0.084743835 0.105322585 0.07450488 -0.012240936 0.019045293 0.09994307 0.05074219 -0.04178785 0.09194195 -0.04912646 0.09474283 0.06758567 0.0070685674 0.21237327 0.03686476 -0.058481835 0.2701891 0.1278098 0.0064282455 0.030164104 -0.06508877 -0.05585402 0.0147389 0.03567052 -0.043651357 -0.031434882 -0.014062212 -0.1226231 -0.061803304 0.12274796
0.17706726 0.121802464 0.124826275 0.0184367 0.028597895 0.12783779 -0.018175649 -0.053463776 0.07704607 0.017758524 -0.015226615 0.10745467 0.045232337 -0.018237736 0.14178644 0.067770906 0.29174134 0.08850083 -0.022608815 0.03553448 0.06728729 0.0074565574 0.04774849 -0.117327355 0.03886827 -0.05854376 -0.13733411 -0.0012384548 0.216143 0.010364328 0.060414698 0.2110243 -0.08417306 0.13030508 0.15294357 0.06270419 0.0122553175 -0.0319347 0.040412463 0.04427356 0.39692882 0.08117072 0.04096585 0.021186609 0.038631037 -0.20399795 0.065137014 -0.065371305 0.008959457 0.16295235 0.034876086 0.17140672 0.07188943 0.027487013 -0.1757632 0.08493387 0.15127377 -0.023860594 -0.074460015 0.029951502 0.21148357 -0.10636903 -0.14227958 0.12345247 0.10312351 0.15892875 -0.08180153 0.017742362 0.07926729 0.06282765 0.08914128 -0.023654211 0.07209408 0.040999547 -0.08421034 0.036240265 0.117588535 -0.10634532 0.13099526 0.004737695 0.059027817 0.16563483 0.07411605 0.021091226 0.045311935 0.08128075 -0.019893697 -0.026940959 -0.054541823 0.17712316 0.18965836 0.11761555 0.073275395 -0.11771277 0.0012084125 0.25833252 0.14167748 -0.040111102 0.034520943 0.024022399 0.051704444 0.05089962 0.10803443 -0.110086605 0.010722566 -0.015927367 -0.030871373 0.08029692 -0.10943219 -0.065178886 0.07268699 0.075533144 -0.04055164 -0.016059695 -0.025598554 -0.03719695 0.07023325 -0.097585306 0.06357912 0.07689952 0.12696566 -0.102403335 -0.005816314 0.04584489 0.011775787 -0.037250593 0.10223491 0.009497513
0.12304732 -0.12378277 -0.14182416 0.02081617 0.031373166 0.041635692 -0.026381787 0.085742824 0.16940804 -0.04747121 0.09619929 0.05200908 0.06374252 -0.14801075 0.06492612 0.003217748 0.0061406475 0.0994897 -0.033667494 0.010333047 0.003939551 0.09572526 0.047132302 0.032578915 0.0955035 0.11194936 -0.0776354 0.1148907 0.19084357 -0.05219397 0.03462931 -0.028179565 -0.12258585 0.011611511 0.008407835 0.078855485 -0.012273608 -0.06576392 0.19070289 0.21300514 0.002189911 -0.0032275754 -0.061519083 0.042653523 -0.123306915 -0.049265727 0.13547157 -0.09561178 -0.015418727 0.14450292 -0.09076335 0.059017297 0.12568837 0.09857606 0.014281408 0.2044453 -0.006591826 0.093503386 -0.08941389 0.03284353 0.08207128 -0.18402581 0.04335467 0.06238365 0.0597016 0.2537447 0.17389426 -0.006748855 0.077760816 0.06602605 0.106929354 0.04997362 0.12876597 -0.15634821 0.01952304 -0.030069726 0.17004871 0.17930606 -0.06339359 -0.029601652 0.028410565 0.1845146 0.1702153 0.052585684 0.014816037 0.11670653 0.13400662 0.06269859 0.18104132 -0.01546928 -0.029194737 0.057264246 0.12537579 0.17097266 -0.032185093 0.09542962 0.026442412 0.0505332 0.035978246 0.043062676 0.044792287 0.043657452 0.09463448 0.18301181 0.014077186 0.15023412 0.12774915 0.0062042056 0.07885166 0.0046930634 0.024368055 0.03358091 0.050003007 0.010020208 0.07964254 0.11343427 0.040831916 -0.016245322 0.030578896 -0.03550392 0.2203413 -0.02390354 0.05724484 0.06477745 -0.037643407 0.12222001 0.04580285 0.12507974
0.090193324 0.0761395 -0.23194769 0.043530323 -0.04325455 -0.07987371 -0.09973378 -0.04554712 0.09075007 -0.14499429 -0.16417679 -0.08443417 -0.152281 -0.0111073535 -0.059069626 0.10147256 -0.022271195 -0.06670151 -0.111970395 0.010039183 -0.10008754 -0.16946645 0.10907059 -0.065943204 0.096719176 0.015170004 0.07092728 -0.06970178 -0.12072745 0.10244935 -0.1216134 0.1430769 -0.11992636 -0.088247314 -0.061304677 0.09452661 -0.086234845 0.013148737 -0.11582869 -0.12882033 -0.037247133 -0.041040573 -0.024280062 -0.004120276 -0.0326354 0.012592754 0.006576723 0.04139625 -0.020397611 0.02325187 0.012592919 -0.059355136 -0.018518217 -0.12823094 -0.11929388 0.013381502 -0.050502382 -0.008434081 0.042269647 -0.062238507 -0.020529607 -0.08960793 -0.050635286 -0.0771825 0.055503327 0.057644118 0.119665526 0.008526388 -0.014651921 -0.11341238 0.009929683 -0.1753499 0.1408983 -0.031273875 -0.06487763 0.04682599 -0.037780333 -0.03406617 0.053802606 -0.0050609126 0.01411018 -0.19083516 0.0023443836 -0.004382222 -0.1538146 0.024594244 0.03461455 0.12222729 -0.032846663 -0.055464294 -0.0001929591 -0.019434016 -0.24694332 0.039218385 -0.17958108 0.023781277 -0.10032217 0.19952582 0.2275109 -0.017664254 -0.043058444 -0.0676018 -0.032839913 -0.13116308 0.054214705 -0.035892744 0.04730466 0.012118029 0.0019917279 0.12479972 0.009555592 -0.0035451155 -0.007361373 -0.069032595 -0.1724651 0.06378745 -0.013909038 0.0074148607 -0.13104343 0.07219003 -0.025277115 0.03878345 -0.09318581 0.030430984 0.028319988 -0.069511525 0.06635704 -0.0562282
-0.16666849 0.018598877 0.1013617 -0.09520953 0.15384424 0.03945208 0.079289384 -0.18436639 -0.08316092 0.0074088173 0.092955254 -0.10219264 -0.14392395 0.14859912 -0.106880896 -0.017104905 -0.060961787 -0.0062872902 -0.18992676 0.066693455 -0.12644668 -0.18754745 -0.107176974 0.0049134274 0.054568905 0.0007769321 -0.093022674 -0.14017075 -0.020919858 0.014856 -0.09767799 -0.19285749 -0.043630205 -0.029471058 0.115504 -0.11142424 0.040368654 -0.13085109 -0.07982959 0.08523587 0.019901026 -0.064765446 -0.053454597 -0.052107714 -0.054696992 -0.05182482 -0.07548017 -0.010937144 -0.07339973 0.2248115 -0.14740743 -0.12537776 -0.038768377 -0.043242805 -0.09615287 0.030628897 -0.08361123 -0.0063686892 0.0644154 0.043077026 0.10277908 -0.007452902 -0.05766335 -0.03880107 -0.05009182 -0.007011537 -0.017858809 -0.14444248 -0.13926153 0.037099537 -0.050451923 -0.18148977 -0.014677419 -0.0020747024 0.09047713 -0.026074573 -0.062858105 -0.164986 -0.0074844807 -0.050089605 -0.08232461 -0.050491143 -0.15406688 -0.04903074 0.22730033 0.004958306 0.14762744 -0.21670358 -0.10807787 -0.1310384 0.02658112 -0.11548024 -0.015461132 -0.18851204 0.14545159 -0.19438241 -0.06143818 -0.118712634 -0.11909985 0.09769666 -0.20232603 0.051342327 -0.02928688 0.15503897 0.029624537 0.15606812 -0.13278075 -0.008924037 -0.19517659 0.04220613 -0.082342476 -0.096961 -0.023789164 0.1109657 -0.069241256 -0.03923971 -0.16669956 -0.065944016 -0.14749666 0.066099666 -0.008412862 -0.00858722 -0.026320374 -0.16906436 0.0803594 -0.08061942 -0.020181898 -0.058277342
-0.07798715 0.077268794 0.04201914 -0.04696831 0.032504667 -0.021355625 -0.1185276 0.06482502 0.12760681 0.11540781 0.09406589 -0.12825343 0.0073756897 0.18017697 0.00998339 0.12181696 0.09125467 0.120803855 0.116076626 0.0668748 -0.032272086 0.05589284 0.03926677 0.0022684757 0.06696942 -0.04058053 -0.059673324 -0.007912678 0.24112897 -0.097101 0.077249475 -0.002518184 -0.2095979 0.19235703 0.15010689 0.1875599 -0.103211954 0.0056556915 0.04963555 0.10305786 0.112612225 0.11132562 0.11187682 0.20611617 0.0038013754 0.077254176 0.17195661 0.06951176 0.13080867 0.12124277 -0.083034195 -0.13529213 0.22881629 0.1460446 0.098479345 0.13545464 0.015485706 0.00479127 -0.092007 0.15101933 0.08729517 0.03194684 0.03802461 -0.09288626 0.06004519 -0.0119377915 0.053906854 0.040057413 0.016301867 -0.09422321 0.058039866 -0.14330164 0.13231318 0.22733882 0.10052017 0.15931866 0.09274906 0.14030536 -0.089231476 -0.011285133 0.057927184 0.07536618 0.019786743 -0.010576464 0.057839584 0.1502624 0.10352764 -0.05038243 0.008733999 0.14664948 -0.041439753 -0.046418168 0.25116828 -0.15631211 0.057175808 0.12672986 0.15134522 0.12645079 0.022798251 0.04110207 -0.020114468 0.027852945 0.07794702 0.11658707 -0.039258283 -0.04333623 0.008554314 -0.09520332 0.08516103 0.12863548 -0.06896552 -0.06943965 0.07930578 -0.059503216 0.036533903 -0.04355095 0.11057689 -0.038337044 0.036988825 -0.044731326 0.026914844 0.23512258 -0.019875428 -0.036460105 0.20578958 0.045792755 0.0005142239 0.0020885894
0.008192135 0.0542678 0.055136416 -0.02599856 0.036028832 0.073105834 0.0020902972 0.025246525 0.008755096 0.22813688 0.055917613 -0.029041396 0.0740594 0.013045385 0.12343997 0.09299668 0.1181124 0.13058412 -0.05023161 0.0338314 0.12834206 0.03790853 0.16972278 -0.037637524 -0.058700833 0.08537073 -0.087173656 -0.045617796 0.13557795 -0.15745693 0.024568692 0.03814565 0.07838386 0.03402856 -0.04753427 -0.0666975 0.018134672 0.04753116 0.081728116 0.028343502 0.0764577 -0.084505945 0.16312179 0.11923667 0.07200476 -0.017225757 -0.049504567 -0.012699113 0.053358573 0.0783112 0.050078467 -0.0016011129 -0.13422842 0.08129651 0.076481335 -0.0014062078 -0.012593962 0.15428458 0.029339937 -0.051269464 0.20429704 0.0020950069 0.07693116 0.25987208 -0.065005496 -0.018074179 -0.2857143 -0.002416137 0.028646981 0.048834484 0.22078109 -0.097304724 0.39853778 0.14813903 0.06608086 0.19580865 0.1704982 -0.15495513 0.17480287 0.15153688 -0.049771797 0.06468176 0.15845992 0.039817773 -0.15641366 -0.02421305 0.055324826 0.051048905 -0.061922215 0.337615 -0.048108578 -0.033727873 -0.099240005 -0.06288507 0.20293787 0.15777923 0.1558169 0.27602094 0.112597965 0.029844234 0.07404792 -0.014386776 -0.01616033 -0.06695817 0.24102972 0.05796096 0.08457569 0.06551539 -0.10945155 -0.10487832 0.08486354 0.03852498 0.036388453 0.030091347 0.15151379 0.049126577 0.16356228 0.0004482291 -0.039854284 -0.006355702 0.021839792 -0.01243758 -0.02642912 -0.01570197 -0.04524483 0.16036193 0.071995094 -0.11942325
-0.021669224 -0.0007781243 -0.12887259 0.1362442 0.12805894 0.094499074 -0.069366254 0.09616077 -0.18644783 -0.0830483 -0.077018574 0.048853755 0.013801315 -0.04863856 -0.10470237 -0.18009984 -0.07513077 0.07027787 -0.11395374 -0.091921434 -0.06194722 -0.021687547 0.0124494955 -0.12134578 -0.08131734 0.05828226 0.03397084 -0.10318892 -0.065898165 0.10043848 0.060893636 -0.052241422 0.16787058 0.08102302 -0.044611517 -0.26016408 0.118680626 0.06710017 0.08304938 -0.10508854 -0.09115503 -0.08517724 -0.022340668 -0.06024302 0.13898543 0.0040325345 0.03469553 0.1055494 -0.11730825 0.024349691 -0.1326321 0.055564463 -0.14376423 -0.15588829 0.058909245 -0.15596509 0.048659917 0.050860096 -0.030653402 -0.1431143 -0.05059965 -0.019286789 0.018417165 -0.023355925 -0.04097846 -0.056429476 -0.032269165 0.0869034 -0.008189058 -0.10465782 0.10761331 -0.021477675 -0.079697974 0.04889597 -0.07295306 0.043479238 0.0054075904 0.015732005 0.04851661 -0.0054674502 0.022687946 -0.16619529 -0.11174589 -0.09123897 -0.10693588 -0.124595374 0.016300257 -0.13781036 0.03905295 -0.07407326 -0.30348754 -0.035211053 0.039276257 0.07458914 0.052795965 0.029678252 -0.14429928 -0.12232342 0.07240584 -0.225086 0.098970905 -0.0993895 -0.02783293 0.012955749 -0.013112005 -0.119969144 0.09401503 -0.054845724 -0.20257366 0.028120397 -0.10113107 -0.0141606415 0.005887878 -0.018425364 -0.002699119 -0.1607818 -0.103944376 -0.011217579 -0.026466182 -0.039337058 0.0021848632 -0.12759706 0.003167353 0.12657352 0.097613364 0.046570532 0.019252988 -0.14594221
-0.14754291 -0.05548287 -0.098444015 0.009187319 0.08421456 -0.11214025 0.00068060315 0.019781189 0.02580185 -0.06324754 -0.13109064 -0.12939924 -0.16678032 -0.034672946 -0.12078568 -0.0143029 -0.06663366 -0.12691878 0.13856073 -0.15779665 0.080455735 -0.13108444 -0.03669916 -0.101019226 0.0928408 0.06451925 -0.06272209 -0.100319214 0.0974819 0.03385417 0.109098785 -0.096366294 -0.02874955 0.055841677 -0.004215585 -0.05515581 -0.057294857 0.041067023 0.16397858 -0.2605384 0.059437618 -0.053490486 -0.11495101 0.019511666 -0.1372088 -0.022083825 0.057906184 -0.020574166 -0.16160521 -0.024610657 -0.10257592 -0.09840249 -0.15949595 0.013281445 -0.10255673 0.07635212 -0.048060857 0.13836141 -0.062426433 0.0064163813 0.016951563 -0.09464342 -0.018949978 0.026057424 0.003153164 0.15549816 -0.002928258 -0.13149999 -0.063921474 -0.032598976 0.011344939 -0.1740664 0.018326843 0.11512813 0.043850947 -0.01123118 -0.115700044 -0.090264186 -0.05561899 -0.042029385 0.032247446 -0.10366038 0.035054456 -0.1710214 -0.011946401 0.051071223 -0.15285903 0.0659501 0.032122806 0.08110309 0.003952708 -0.043019354 -0.09871954 -0.082834974 -0.013641924 -0.08664164 -0.1748912 -0.016050171 -0.009533156 -0.036394637 -0.12178618 0.04507696 0.023770774 -0.006122219 -0.010225859 0.12003406 -0.19525664 -0.02090825 -0.07097043 0.04489564 -0.067107156 -0.165025 -0.052153848 -0.030125996 -0.030748114 -0.045693643 -0.010315139 0.01771772 -0.1937236 -0.017764136 -0.026650954 -0.044534057 -0.0549472 -0.03264773 0.04998731 0.10075638 -0.050853856 0.06501627
0.05812375 -0.14860627 -0.022545623 -0.002412344 -0.0918382 -0.062456552 0.028976955 0.11472853 0.046151035 -0.06528534 0.077737235 0.036588524 -0.18348387 -0.009905369 -0.087847434 -0.018950297 0.0563844 -0.065405294 0.06804857 0.009760065 -0.15371262 -0.03435759 0.007897268 -0.05762129 -0.033795446 -0.010455721 -0.09660598 -0.026663177 -0.02811826 0.054981776 -0.018819097 0.14354034 0.0045511965 0.08697596 -0.0052963654 -0.05118459 -0.1829092 0.00826755 0.035177622 0.019032832 0.0074617174 -0.012328597 0.009490229 0.10028547 -0.015510901 -0.03376262 0.09811631 0.011079848 -0.14611505 -0.08156691 0.040650222 0.0031214366 0.01779473 -0.11398604 0.007795857 0.04881711 -0.18753824 0.024417667 -0.03465824 0.1562309 -0.0286042 -0.08416726 -0.1589427 -0.037996583 -0.123963006 -0.08159578 -0.006855213 -0.08131384 0.026220566 0.048726883 -0.041425444 -0.034209937 0.052680086 -0.116328344 -0.13684805 -0.080669984 0.026516985 -0.02506445 0.006230062 -0.010877425 0.07610616 0.09785478 -0.17461826 -0.030904718 -0.16704457 0.06617147 0.124714606 0.08965559 0.047202297 -0.06906161 -0.060832508 0.03947038 -0.11683313 -0.016028624 -0.04440737 0.05933204 0.06258009 -0.07727087 0.012961162 -0.15817705 0.03790128 -0.13513932 -0.10649218 -0.10364306 0.090868466 -0.068235636 0.015154789 0.14506567 0.057673357 0.118610665 -0.021133427 0.02849151 0.13122158 0.07718838 -0.016160991 -0.03371594 -0.19978489 -0.091773406 -0.08104577 -0.071538515 0.0047675422 -0.1934783 -0.18404849 -0.061528597 -0.12146891 -0.041502766 0.001106471 -0.1588087
-0.010878601 0.026550662 -0.021118525 0.08572767 0.0635569 0.11416288 -0.08422961 -0.037154317 0.28311455 -0.08182612 0.028840879 0.01708811 -0.07300004 0.027813442 -0.03751163 0.12348571 0.07395688 0.12842044 0.017601537 -0.030153334 0.08290356 0.14493227 -0.008280754 0.08526801 0.1122995 0.0450256 0.0075549516 0.15012349 0.14926408 -0.07801812 0.013081761 0.090421095 -0.017234547 -0.06596762 -0.029884158 0.0556524 -0.09767522 -0.05798425 0.040025517 0.14400989 0.038492627 0.10449447 0.086459376 0.024235126 0.19457495 0.032386612 -0.10314203 0.13803224 0.13937075 0.034945108 0.2622339 0.100758694 0.00850242 0.059943385 -0.038722586 0.047467016 0.19947529 0.123036265 0.19491437 -0.17366205 0.07325332 -0.01829423 0.004703668 0.019188304 -0.1312573 0.011215139 -0.04691641 0.09880562 0.085779086 0.04523239 -0.087047756 0.08351877 0.15010843 -0.034349326 0.05079127 0.15923318 0.05942552 0.055424593 -0.14269224 0.11599146 -0.10359182 0.09707576 0.103528805 0.18714552 0.11369636 0.039160658 0.07105709 0.06805882 -0.039256915 0.25568968 -0.031119715 -0.053903274 0.0062460634 0.21526773 0.13533919 0.21790993 0.09868223 0.2985833 -0.07479396 0.02995924 -0.13470605 -0.03414793 0.13474733 -0.02430497 0.16473745 0.08373349 0.02222285 -0.10627579 -0.091927074 -0.03557437 -0.1226432 0.15456001 -0.117712155 0.044300094 -0.025200818 0.14197454 -0.10112465 0.07360244 -0.06599765 0.09039884 0.0077824467 0.068689995 0.017018186 -0.07150187 0.013719109 -0.058892358 0.028860355 -0.0659879
-0.06588931 -0.11918614 0.10883746 -0.022484949 -0.011821679 -0.08818409 -0.20108598 0.048452582 -0.10695517 -0.012268211 -0.11159817 0.08990109 -0.010754787 -0.11728764 -0.10467473 0.0030468402 0.22140497 -0.095369115 0.007451326 0.07735299 0.12566018 0.01747935 0.1258332 -0.10240972 0.09883606 0.10362146 -0.048765082 0.18461677 -0.089879066 -0.12393628 -0.14079186 -0.07356899 -0.046461612 -0.11755849 -0.20924513 -0.13677682 0.01015324 -0.0025809903 -0.08932974 -0.21552856 -0.0022057013 0.09234972 0.10407072 0.07566892 -0.0393284 0.16960344 0.1487987 0.09621588 -0.12917964 -0.087285236 -0.097303405 -0.09260206 -0.1773083 -0.049777944 0.1591515 -0.07808343 0.05537758 -0.063556254 -0.1592401 0.0067083547 0.09514896 -0.043148737 -0.16789632 0.11490188 -0.19426431 -0.17444703 -0.14646834 -0.13216326 -0.055512786 -0.05145416 0.006223531 -0.12482397 -0.04072233 -0.048964925 0.12000514 -0.14572553 0.04004835 0.039022535 -0.06928582 0.0237954 -0.07179908 -0.06580506 0.042133603 -0.18262576 0.108669676 -0.030397352 -0.14569546 0.07555789 -0.21418782 -0.13111499 -0.04357171 -0.04203128 -0.1636068 0.048378613 -0.05106338 0.034282815 0.051557217 -0.08244252 -0.11009078 0.060565732 -0.014679713 -0.11630531 0.17437394 -0.07666643 -0.06698996 -0.05122856 -0.022659302 -0.05421284 0.0101055 -0.055590477 0.07941779 -0.15204565 -0.054129936 0.15188631 -0.19224754 0.0051541086 -0.054696135 0.03790948 0.17156504 -0.07508556 -0.05223947 0.22728351 -0.1380845 -0.21067724 -0.038364027 0.06988892 -0.109398834 0.12263184
0.13681327 0.1515459 -0.01288849 -0.11525784 0.06868938 0.058296163 -0.07302546 -0.093428 -0.11689306 0.14092742 0.064246684 0.18526702 0.07844992 0.08483477 0.11605693 -0.012795744 0.06351592 0.07881068 -0.17381665 0.15874834 0.22572288 0.06829279 -0.062031884 -0.1111477 0.22314455 0.018271558 -0.0551907 -0.16341145 0.12394626 -0.055777244 -0.013395185 0.120831065 -0.011721594 -0.014579328 0.08407974 0.08326657 0.11657043 0.011741293 0.0053342395 0.07806431 -0.030117702 -0.2876121 0.0014446812 0.045420967 0.045231633 0.035542853 -0.044959478 0.012853008 0.18655746 0.043844093 0.102084614 -0.04060454 0.15933754 -0.058307484 -0.05858111 0.03229871 0.11569113 0.11370264 -0.052365985 0.06510273 0.04996444 -0.047683895 0.056823567 0.0158566 -0.026223177 0.012206319 0.04332649 0.11027609 0.109218 -0.015992232 0.050766524 -0.240442 0.02766766 -0.13458192 0.09427825 0.056787975 0.123146616 0.07098524 -0.014075257 0.079274565 0.061014008 -0.041489515 -0.055249278 0.025224969 0.131886 -0.113833174 0.21303248 -0.020561181 -0.0224492 0.41523674 0.14442152 -0.02047606 0.08475013 0.0999446 0.03431651 0.030634038 0.04840163 0.09706822 -0.07187873 -0.1274513 -0.07788647 0.0840134 0.121395886 0.026375914 -0.06960876 0.12937203 0.018124305 0.1244355 0.011047785 -0.06946558 0.0015166805 0.082610495 0.1854377 -0.14738594 0.07896973 -0.019127706 0.06201028 0.13083662 0.09679094 0.10208782 0.10451746 0.019792503 -0.016859861 -0.021038013 0.24159145 0.077836074 0.11264089 -0.008406505
-0.12330142 0.055237442 -0.13279955 -0.09686646 0.09566931 -0.06219772 -0.03014547 0.2546057 0.0025419076 0.064559124 -0.022398649 -0.059151534 -0.025708837 -0.010104323 -0.05264047 0.010161175 0.20451961 -0.045108616 -0.037076995 0.095969066 -0.18368366 -0.23245634 -0.048969626 0.08285776 -0.049438793 0.030865766 0.04232982 0.03956479 -0.15700363 -0.07876724 -0.039013885 0.028407631 -0.03635504 -0.05462758 -0.058803473 0.009098222 -0.021184947 0.05204658 -0.12850742 -0.15195997 -0.05832305 -0.045553386 -0.017640613 -0.06433612 0.022551453 -0.02446203 0.043692064 -0.03960946 -0.1278228 -0.016205618 -0.04038396 -0.12104185 0.02287946 0.03486778 -0.21056484 -0.02382972 0.07460862 -0.04844453 -0.032393258 0.021445083 -0.008015535 0.107264444 -0.035653207 -0.08241294 -0.096697435 -0.04221351 0.12544881 0.22789976 0.030795593 0.054449383 -0.08766043 0.019386027 -0.026501361 -0.10969698 -0.04416914 -0.11749338 0.032267842 -0.11845567 0.1234993 -0.0076211262 -0.109358154 -0.18200324 -0.04281965 -0.1442753 -0.06759581 0.03652685 -0.037305787 0.0073481402 -0.09636155 -0.044701986 -0.10184722 -0.017947791 -0.021848025 -0.06224621 0.019780597 -0.047709044 -0.102418214 0.036893643 -0.036790133 0.10999092 -0.027887702 0.050076623 -0.09243764 -0.19509682 -0.030391071 -0.151815 0.0245179 -0.08650223 -0.06563631 0.06376987 -0.08049465 0.08660482 0.038250346 -0.111051224 -0.019693768 0.07017405 -0.049302686 -0.041020688 0.022521457 -0.028651068 0.036375538 -0.13121164 0.044415098 -0.016250478 0.09704664 -0.18336004 -0.16528998 0.034524754
0.11873546 -0.013570316 -0.039312694 -0.1591063 0.06019133 0.1430834 -0.071662635 0.028175129 -0.1611078 -0.120041825 0.039959144 -0.009099174 -0.18764171 -0.050857738 0.089201264 -0.05821768 0.027102495 -0.10449766 -0.096276104 -0.024153123 -0.03735886 0.06521924 0.073841564 0.03627953 0.13084432 -0.0426104 0.033828143 -0.07665496 0.0007878212 -0.17608458 0.02047809 -0.06672719 0.0769365 -0.044575833 -0.088406116 0.005885314 -0.33235237 0.053465027 0.044673573 -0.023212705 -0.058166146 -0.036617532 0.03173565 -0.11962203 0.033706747 0.14024203 -0.016805653 -0.022790333 -0.017376974 -0.11565078 0.065436184 -0.17412703 -0.09393479 0.12187333 0.12755802 -0.11140739 -0.05270619 -0.16925173 -0.06387817 0.088785104 -0.17550196 -0.04484099 -0.043794144 0.066023454 0.02535311 -0.11138734 -0.082584664 -0.15679958 0.0031734484 0.00073410483 -0.107944526 -0.115868434 0.032976445 0.025919674 -0.027637318 0.04608942 -0.17925526 -0.0057566804 0.0972265 0.038944524 0.11687502 0.057228036 -0.041222982 0.03088002 0.09268585 -0.013188641 0.12809645 -0.0017331756 -0.026108664 -0.10864581 -0.08848286 -0.024499917 -0.0037630915 -0.0005902337 -0.016730586 -0.022164956 -0.06539383 -0.06620849 0.013470902 0.015997702 -0.013239946 -0.038455155 0.018111726 -0.14252807 0.04579464 -0.13235554 0.09476238 -0.057934582 -0.169271 0.083861455 0.043088645 0.112247415 0.03461871 0.18105692 -0.06545068 0.010722213 -0.23102887 0.009647862 0.026846547 -0.016641019 -0.024246084 -0.11080696 -0.011151052 -0.15409876 0.10514974 0.10005177 -0.08047134 0.06836819
0.034032892 0.13639589 -0.038841307 -0.08710477 0.08142551 0.22353853 -0.013591223 -0.07105863 -0.089277074 0.23064809 -0.019321766 0.10301105 -0.036863048 0.006183559 0.08181335 -0.066037126 0.14640544 0.025430048 -0.040851604 0.11897452 0.065877035 0.13811144 0.09280725 -0.049643025 0.036306106 0.155529 -0.08953693 0.05597424 0.1254284 -0.046655238 0.18480723 -0.12168363 -0.080107644 0.0010232696 -0.0047507156 -0.027789325 0.15540478 0.07246577 0.1658829 0.03946409 -0.14918636 0.10352346 -0.10334461 0.0042275763 0.0016914322 0.15286179 0.0705843 -0.07277452 -0.09880616 0.1398414 0.050775014 -0.00033460872 0.10422537 0.109729014 0.02226867 0.089358814 0.06451486 0.0660042 0.014876378 -0.031206984 0.08561547 -0.025300989 0.03854459 -0.028611235 0.02595088 0.11841647 -0.026667792 0.054686405 0.087138005 -0.088345915 0.15093817 0.011451834 0.15901086 0.1502868 0.26404983 0.021493986 0.004515553 0.095028475 0.121464044 0.17055833 0.120754704 0.161086 0.043735225 0.16713016 0.042757317 0.17523874 -0.043334026 0.17103694 -0.018370625 -0.07153208 -0.020951802 0.0060531814 -0.09087125 -0.14018178 -0.011541779 0.22030807 0.2225191 0.31114593 -0.022466887 -0.06651631 0.030736998 -0.006427818 0.037493505 -0.04354224 0.01638765 0.066840686 0.0398787 0.14500082 0.13446882 -0.031131605 0.15244906 0.11659929 0.18089893 -0.011842081 0.042124078 -0.011778138 0.10307079 0.1285109 0.17118296 0.1014509 0.13842641 0.10592587 0.033074476 0.12720092 0.10202792 0.10209864 0.16592062 0.0751302
-0.08218807 0.0890748 0.07381416 -0.021893552 0.027645264 -0.032374334 -0.050338537 0.08842106 0.0006373744 0.06372216 0.05290836 0.0085016275 -0.06882327 0.095940314 0.09302574 0.10149807 0.17029025 0.061982535 -0.20872094 0.07337393 -0.025541507 0.09135821 0.101974025 0.20951818 -0.05918898 0.0753328 -0.00691894 -0.05555824 0.016494237 -0.029085105 0.2102729 0.1408425 0.12279202 -0.14576142 0.12741618 0.03062756 -0.03137973 0.16241224 0.10635532 0.044345014 0.14501084 0.09791353 0.21714412 0.21331583 -0.039022326 0.114403315 -0.0070299213 0.0051440187 0.092819035 0.20561981 -0.08091402 0.137746 0.1219666 0.0943225 0.07010224 0.022372827 -0.08330406 0.112174906 0.02078313 -0.10849866 -0.018911319 -0.0333969 -0.047681063 0.124747045 -0.067038245 0.10435666 -0.14864804 0.2000422 -0.0066625876 0.06887997 0.02097469 -0.11926852 0.11103287 -0.044698376 0.22050232 0.058620747 0.10909454 0.0071502267 0.015936073 -0.14605722 -0.08038471 -0.031149415 -0.04018731 0.018781682 -0.16565399 0.10371904 0.055969562 0.008505733 0.111999854 0.0543224 0.15294643 0.11564438 0.2730665 -0.035908114 -0.017210858 0.042348187 -0.03360534 0.09398423 0.027288526 0.12214622 0.18557179 0.0825827 0.11299042 0.121162325 -0.049582224 0.057619546 0.10765486 0.166731 0.08342503 0.008462586 0.09526129 0.031227918 0.15035434 0.065891765 -0.008890139 0.015376965 0.22090055 -0.050463423 -0.058047567 0.12035012 0.01746081 0.0257093 0.014081067 0.004689777 0.07878628 -0.019896997 -0.06101675 -0.09673703
0.056420673 -0.124170475 -0.05845275 -0.0300009 0.056107957 -0.06306213 -0.01982841 -0.048089504 -0.0038165841 -0.040343493 0.101399325 -0.10823603 0.14694832 -0.23557556 -0.15467677 -0.08124605 -0.054646056 0.07349997 -0.014411215 -0.040817168 0.028753838 0.07624342 0.124942325 -0.23119086 -0.084747106 -0.09265326 -0.16749778 -0.10625702 -0.1507759 0.024000507 -0.12784836 0.019740844 -0.050409637 0.042416364 -0.0034575518 -0.10803156 -0.14429083 -0.07520323 0.112618044 -0.009773336 0.14740548 -0.11588003 -0.07617083 0.14960568 -0.17038551 -0.009624409 -0.0013161585 0.021478133 -0.035310417 -0.039532013 0.02263734 -0.10402866 0.061889127 0.098605454 -0.10607853 0.008839992 0.06920244 -0.0063584363 -0.033487335 -0.16213115 -0.06333419 0.059581663 0.0072697075 -0.023865493 -0.03410443 -0.069552645 -0.07704128 -0.0041378317 0.019864136 0.1029344 -0.16504616 -0.033855405 -0.0056388252 0.020046944 -0.06411147 -0.2790483 -0.084294625 0.0790399 0.08628859 -0.017465698 -0.011876822 -0.085907444 0.013402428 0.028891677 0.113775104 -0.05155831 -0.11035347 -0.0027381182 0.040914994 0.016876264 -0.08506398 -0.11365675 0.13173267 0.007080941 0.054164905 -0.025098357 -0.047213048 -0.12036071 -0.046390954 0.089102 -0.038930908 -0.07668156 -0.041052468 0.06271704 0.101403914 -0.12249157 -0.11809796 0.082546994 -0.120532714 -0.09406995 0.057504237 -0.22260955 0.023152908 -0.060224265 -0.02204507 0.004187715 -0.019849567 -0.09449685 0.014445061 0.099119544 -0.069090046 -0.11444 0.008299008 -0.20142363 -0.03169158 -0.0017780301 0.018456494 -0.0058272197
-0.035886396 0.023537826 -0.060632996 0.0034680467 0.15875573 0.08677436 -0.04274133 0.09560341 0.14026834 0.023476072 0.057398677 -3.4432724e-05 0.11695156 0.11705916 -0.056646954 -0.059139445 0.089985885 0.0479315 -0.14890417 0.112361796 0.023386888 0.035302114 0.12147311 -0.026086163 0.007963707 0.15579677 0.079451345 -0.13508789 0.2951769 0.015188177 0.038295686 -0.053113442 0.010495762 -0.031890992 0.13736579 0.111286044 0.08119236 0.05549051 0.12112102 -0.0007187617 0.041420575 0.051792577 0.040311754 0.026577303 0.14487664 -0.059822485 0.103981026 -0.03207884 0.16475134 -0.021479573 0.20674713 0.1106234 0.061433434 -0.101828 0.046062127 -0.06987814 0.068223186 0.24988407 -0.06411893 0.078502156 0.25807655 -0.05017286 0.06910762 0.12964325 0.09082935 0.046672605 -0.16327022 0.08613408 0.046012964 0.080704965 0.10630005 -0.07349789 0.024615085 0.0012240388 -0.029721193 0.072137326 0.028660728 0.16947177 0.17648801 0.20902228 0.0057426044 0.019121349 0.106191285 0.024289211 -0.03659903 -0.065535285 -0.041152496 0.06308083 0.009984765 0.4103713 0.00808975 0.07693868 0.11012174 -0.0068318415 0.016678553 0.06650666 0.15156674 0.6541778 0.06985718 -0.012217476 0.13711938 0.12637345 0.34620658 0.2510894 0.15567574 0.035203464 -0.07623612 0.06241843 -0.08588187 -0.0150071895 -0.12985355 -0.07279283 -0.056117218 0.08517616 -0.19431302 0.03647263 0.03673817 0.026280126 -0.11177167 -0.10180298 0.18423031 -0.057226505 0.15139294 -0.051672023 0.047667228 0.03947499 0.05005022 -0.15044431
-0.12768826 0.048086125 -0.0039476478 -0.08209385 -0.1822452 0.0072896276 0.12772623 -0.18954496 -0.0065491577 -0.04201 -0.21737272 -0.018843625 0.018608019 -0.0025604996 -0.12887412 0.05833348 -0.07138962 0.022528747 0.011238084 -0.088664465 -0.09593228 0.093900576 0.06939703 0.02182717 -0.08761376 0.010065283 -0.12871838 0.047997613 0.033738982 -0.14133172 -0.031930882 0.01339671 0.011178794 0.06353718 -0.061078127 -0.017598715 0.053478815 -0.08583283 -0.029198475 -0.19795032 0.18451814 -0.009571853 -0.01298293 0.010289463 0.008924932 0.21431325 -0.063327536 -0.15965144 0.00093653967 -0.075498104 0.18577704 -0.20754841 0.11592793 -0.0011824796 0.07421841 0.011819767 0.03882716 0.1320457 -0.03967948 -0.026277935 -0.038470637 -0.09063224 0.059946798 0.027227374 0.03882521 -0.018758971 0.03723981 0.017766798 -0.019232797 -0.050199956 -0.071227275 0.15145977 -0.027972015 0.10286265 -0.007174058 0.048895866 -0.13747591 -0.21513155 0.0111706965 0.04197952 -0.009119164 0.0050810394 -0.07325708 0.079600096 -0.12606029 -0.05033651 0.15130907 -0.0579706 -0.07675943 -0.004197074 0.11056689 -0.16970004 0.089955404 0.09805476 -0.06883333 0.0071348962 -0.17383026 -0.021402858 0.052718066 -0.014298874 -0.014783971 -0.11160188 -0.06311598 -0.049879763 0.03519011 -0.045797464 0.05250663 -0.02303737 -0.110805064 -0.018912874 -0.034669973 0.01935229 -0.17340918 0.027362468 -0.064038955 -0.06757013 -0.19483772 0.02952465 0.05288379 0.05400348 0.08915067 -0.24165973 0.004628132 -0.08847736 -0.01019086 -0.10697455 -0.047370587 -0.045821406
0.1068439 0.015286128 -0.16654481 0.19049832 0.056419615 -0.08820078 -0.018360358 0.14208913 0.07618017 0.0143604 -0.011477424 0.037755433 -0.0034762123 -0.06651732 -0.03563751 0.14916433 0.06499584 0.090531684 -0.06148591 -0.02424781 0.12571244 0.013712172 0.2031812 0.20722789 -0.042658832 0.1426833 0.05277944 0.07317797 0.12033693 -0.035076644 0.047106735 0.009275582 0.052220754 0.096758865 0.089014344 0.020484969 -0.041999876 0.13815996 0.17589277 0.045387343 -0.033419095 0.17291194 0.16443528 0.07415162 0.2360833 0.15091975 0.08531817 0.04820517 -0.044336833 -0.06319916 0.13619903 0.083193146 0.10942777 0.23629573 -0.022796819 -0.07947765 0.057176083 0.07233937 -0.021026962 0.14179745 0.07344336 -0.111853376 0.18740858 0.05425911 0.05889142 0.13742273 0.061302073 0.038872205 0.10320933 -0.045416728 -0.054001387 -0.07547532 0.07860322 0.05344877 0.007655101 0.016614504 0.18457998 0.15701923 0.043326892 0.07689033 -0.02297332 0.15686917 0.14443415 0.09331271 -0.06730779 -0.02865915 -0.020053664 0.216649 0.10401574 -0.7601696 0.050398648 0.0023840242 0.055989467 0.021219756 -0.123187974 0.28404385 0.11718057 0.116519645 -0.051149618 -0.13728681 -0.101651356 -0.0017544124 0.18718258 0.11495676 0.07188063 -0.040143874 0.25130618 0.054885235 -0.031991094 0.051655866 0.021247955 0.020998547 0.03889814 -0.07266418 0.014018522 -0.15817107 0.15770832 0.056060392 -0.042630117 -0.022344947 -0.0016709047 -0.09631422 0.1998389 0.067541756 0.26752484 -0.09919176 0.07077166 0.07760705
-0.014155701 -0.012741568 0.036419503 0.020587867 -0.030021535 0.08240446 -0.1094645 0.14828987 -0.07665221 0.11967569 0.009661084 0.083216876 -0.0744892 -0.022024306 -0.051081356 0.1539659 -0.037942473 0.13669361 -0.05952926 -0.003509312 -0.0014868361 0.11473814 0.102651626 0.035083313 0.22770402 0.10034547 -0.03986083 0.1707517 0.09437327 -0.031001916 -0.14068654 0.07482471 -0.05126078 -0.00919179 0.05010739 -0.0014599398 -0.018398412 0.00337797 0.13270725 -0.08306858 0.0682016 -0.0028472457 0.0012997878 0.064701535 0.054906245 0.05410404 0.0511915 0.07948735 -0.10552211 -0.031907257 0.11996657 0.27115834 -0.07030193 -0.087017834 0.0966863 0.15650462 0.114344396 0.23608455 -0.025402533 0.029179662 0.11388284 -0.10120614 -0.013626922 -0.03618799 -0.22463277 0.18518697 0.013671398 -0.21339239 0.07702306 -0.0034083622 -0.18499607 0.0025347804 -0.0024634025 -0.03673038 0.10936152 0.075768806 -0.09119224 0.04897498 0.10696313 0.012218876 0.011664614 -0.055494003 0.027361149 -0.03724175 0.039108023 0.06323257 0.027557585 -0.06618678 0.110373944 0.37902024 0.06719646 0.10081487 -0.04712651 0.046616435 0.04161948 0.04961812 -8.1974315e-05 0.2521317 -0.09165354 -0.034754403 0.104229115 -0.036607496 0.1686403 0.057589892 0.068771616 0.17297085 0.070316926 0.099351935 -0.0041841213 0.0358238 -0.027756251 -0.09436457 0.04495141 -0.025029065 0.110064216 -0.07623281 0.0155131295 0.2156709 0.014153922 0.16100456 0.11017992 -0.09423731 0.05425343 0.118997656 0.10137129 -0.13290738 0.092314646 0.019977
0.06754557 0.12138767 0.0044656633 0.114863925 -0.0056146826 0.15352573 -0.046227664 -0.06440955 0.119790085 0.1315911 0.15666385 -8.30096e-06 0.17078607 0.06775072 -0.07462947 -0.042287182 0.16435382 0.12913658 -0.08059902 0.113049805 0.2313992 0.07039121 0.028491663 -0.0027470898 0.031474497 -0.047599234 0.06816509 -0.03647185 0.063903734 0.20628472 0.08643985 0.11580733 0.09508184 -0.19228601 0.08790289 0.0069956994 -0.07552384 0.049653325 0.05401315 -0.048366386 0.012646153 -0.26884598 -0.022333961 0.010340794 0.19188866 -0.004548093 -0.074210465 -0.0017687842 -0.09014668 -0.03840823 0.05777056 0.021815771 0.2498538 -0.016961083 -0.10266766 -0.03118569 -0.008346416 0.21960282 0.12666328 0.057928845 0.044662017 0.078194365 0.0744694 0.034896053 -0.12605318 0.01404018 0.037075263 -0.015868606 -0.0056686513 -0.016321387 -0.002395641 -0.10119438 0.1344794 0.07361111 0.2511497 -0.0029963057 -0.098914556 -0.13459174 -0.061393525 0.15582426 0.22080512 0.11473484 -0.039118167 0.087170295 0.05724451 0.11747019 -0.08238685 -0.074799806 -0.09271073 0.26836553 0.19263768 -0.11151865 0.012100783 -0.0695143 0.08499703 -0.12962976 0.18955454 0.2900873 -0.10592774 0.074509084 0.2456579 0.08990811 0.25278178 -0.009555248 -0.02270568 0.0226271 -0.025749387 0.048160125 -0.046855174 0.030651227 0.13360238 0.0115557695 -0.01869591 0.08848426 0.032002058 -0.057195004 0.041106857 -0.038738266 0.15737928 -0.07632956 0.051712897 -0.0055167014 0.12502937 0.009791242 0.25615048 0.15565862 0.026186744 -0.15402135
0.029470645 0.08281437 0.16726953 -0.027113033 0.034218904 -0.1589846 -0.10935238 -0.038914286 0.012032473 -0.035820637 0.0010943686 -0.039180428 0.024555217 -0.06668608 0.050313648 0.10002084 -0.039129894 -0.150041 -0.048344173 0.15856971 -0.18417075 0.0015010121 0.08220059 0.13828619 -0.13942379 -0.18838573 0.10917434 -0.015386587 0.0017852205 0.086308636 -0.1712937 -0.061201252 -0.045175415 -0.044706147 -0.121804714 0.04647542 -0.16467291 -0.08870488 0.062757365 0.049300887 -0.14639358 0.0068105883 -0.035794437 -0.09556673 -0.16435927 0.066103294 0.02449383 -0.10862772 0.062021468 0.053179104 -0.06581976 0.00043220504 -0.065368235 0.028078364 -0.07644132 0.11635522 0.021315577 0.0032442186 0.057748336 -0.07503288 0.019265484 -0.086594746 -0.18100832 0.112327315 -0.20307282 -0.0446783 -0.04001891 -0.0028594907 -0.12106516 0.03403812 0.0067806686 0.03921485 -0.016832381 -0.051428918 0.021954697 -0.08976775 -0.005001595 0.014743091 0.009402804 -0.088632904 -0.111238725 -0.114184186 -0.1160786 0.08392764 -0.057425402 0.0036236355 0.09321471 0.06355347 -0.14769132 0.033049986 -0.031006332 -0.034628358 0.06210221 0.031850945 -0.03646407 -0.09209275 0.025725538 0.07597571 -0.02916073 -0.16362527 -0.058539085 -0.013028968 -0.044636708 -0.0026038843 -0.024268325 -0.019386755 0.016479878 -0.15989466 -0.056355264 0.054388024 -0.07110029 -0.08161729 -0.07276752 0.037419967 -0.09725793 -0.004450451 -0.0510848 0.06747634 -0.09428129 0.010766109 -0.25165075 -0.041286755 0.013370692 -0.03550943 -0.07416059 0.12186764 0.06099772 -0.18950558
0.12804173 -0.09333331 0.071536765 -0.023110952 0.054085076 0.060476076 -0.05650388 -0.090912856 -0.19371204 -0.11190425 0.10843813 0.009533762 0.021218432 0.022587564 0.04230085 0.14155984 -0.023302564 -0.16223925 -0.021150757 -0.14979348 0.015745005 0.025405018 -0.043521054 -0.0817955 -0.0072060297 -0.050849523 -0.10872297 0.0103103435 -0.02845579 0.040891975 -0.089258656 -0.03791582 0.09250198 7.266999e-05 -0.0631224 -0.04162271 -0.107933834 -0.17643341 -0.053130835 -0.12075219 0.04862571 -0.11879047 0.119828604 -0.04655573 0.08284314 -0.04779392 0.07160573 0.16303308 -0.27763152 0.03249982 0.03967996 -0.02658646 0.041396335 -0.03259924 -0.10136578 -0.060061444 0.05515601 -0.06256444 0.06705635 0.13597934 0.0789664 0.012304749 -0.04302113 -0.08208768 -0.079441465 -0.028652413 -0.18040416 -0.13070528 0.04486099 -0.13053882 0.054819103 -0.1533237 -0.050501585 -0.19073448 0.012867671 0.020830564 0.091895364 -0.1818836 -0.10906898 -0.069787614 0.02509182 0.07545686 0.03862797 -0.093436904 -0.055536978 -0.060063753 -0.045432795 0.045174908 -0.05804093 -0.08537124 -0.04276587 -0.09170526 0.020231886 0.045742415 -0.02673427 -0.099660665 -0.039373852 0.12323884 0.06324234 -0.19969405 0.011971309 -0.19384047 -0.12678863 0.04446374 0.16459747 0.06368533 -0.11996888 -0.18760686 -0.04176116 -0.0797372 -0.04393251 -0.124171175 0.052462023 0.046250455 -0.1258178 -0.05084353 -0.119268976 -0.22931774 0.0513895 0.017773738 -0.0263939 -0.01173827 0.17339952 -0.23460215 0.014531828 0.05401049 -0.12346775 0.067981735
-0.044569854 0.021476299 -0.059415303 0.014941151 0.055977926 -0.12684008 0.18757595 0.015103086 0.012022226 -0.18617767 -0.09616619 0.085813485 -0.03496876 -0.068101116 -0.034385163 -0.1604955 -0.07003649 0.081044696 -0.13909139 -0.06708406 -0.042956106 0.1077614 0.06446756 -0.087212846 -0.073887154 0.11576128 -0.04807367 0.066801384 -0.11922485 0.21163294 -0.0717192 -0.015911916 -0.052555945 0.035661623 -0.011115833 -0.07442223 0.08681745 -0.10751755 0.09402816 -0.020180361 0.03937055 -0.04826935 0.057188377 -0.09186907 0.076277755 0.10096613 0.001220883 -0.09155449 0.009859726 -0.048412986 0.078289464 -0.007182307 -0.079176195 -0.13641405 -0.13738626 0.10918362 0.061738204 0.06357877 -0.011707054 -0.19512025 -0.06364735 0.05975589 0.054051664 0.009128474 -0.041082367 -0.1181955 -0.060001634 -0.11289292 0.18888672 0.050150305 -0.15796766 0.022603195 0.06765157 0.035066277 -0.12004406 -0.020660516 -0.031368148 -0.029293481 -0.11772003 -0.07947969 0.08129835 0.044837855 0.117823884 -0.09392814 -0.01652955 -0.03813014 0.0928942 -0.013707944 -0.08728077 -0.056696076 -0.011975354 -0.07809029 -0.125426 0.06416604 -0.044542573 -0.014706085 -0.107185304 0.045908164 0.0026142413 0.12191428 0.044686586 -0.06591523 0.021895722 -0.07193192 0.049339756 0.0211834 0.056711134 -0.17093301 -0.02887199 -0.016483892 -0.08062863 0.009082091 -0.07857848 0.037910644 0.068217255 -0.029552564 0.010076463 -0.11419873 -0.07987056 -0.0020923864 -0.046875827 -0.07417592 0.08234137 0.06375584 -0.020477775 0.13320443 0.04185984 -0.019945057
-0.13667032 -0.006451021 0.11681619 -0.018989347 -0.0027848403 -0.011759343 0.016695064 0.11365589 0.0050919177 0.019769803 0.045039598 -0.120399304 -0.03418988 0.053177327 0.0781221 -0.13496773 0.015976753 -0.12418787 -0.035201102 0.019035442 0.04876827 0.11295764 0.073936515 0.10828912 -0.048341475 0.14129436 -0.043557063 0.044172104 0.14438236 0.13245372 -0.014499723 0.15480494 0.040055975 -0.015300485 -0.034104917 0.09026978 -0.056794193 0.015052615 0.13300581 0.06384936 0.11089868 0.15807302 0.06477635 -0.010972389 -0.14097995 -0.030004196 0.043331604 0.12946051 0.08977344 0.041114137 0.104057856 0.097858764 0.09242121 0.1868683 0.10739478 0.16269056 0.13497372 0.31065086 -0.13027245 0.13591737 -0.02753592 -0.08642147 -0.011554587 0.102009915 -0.0921581 -0.013593664 -0.11834469 -0.019782547 0.15397592 -0.0691593 0.109897494 0.026853485 0.19392504 0.052615024 0.26287583 -0.038518444 0.28814372 0.13163428 0.22722311 0.06914212 -0.19077659 0.12147578 0.1895367 -0.04506434 -0.040737752 0.059277818 -0.072359316 -0.10628192 0.102199 0.14951587 0.15227094 -0.08796297 0.14529812 0.06690669 0.043857314 0.041265517 0.056381796 0.37277886 -0.057420228 0.000789097 0.11502296 -0.042405713 0.073715545 0.116118066 0.30703875 0.06366403 -0.08870402 -0.008540649 -0.002863583 0.038080227 -0.031703893 0.10502918 0.09285695 -0.006202405 0.07419242 -0.1096215 0.034554116 -0.05471925 0.17506777 -0.011139748 0.052451927 0.009656291 -0.03586662 -0.010078955 -0.08720005 -0.07582152 0.031348955 0.0058240383
-0.0442151 0.15286896 0.0012594934 -0.034739073 -0.04486154 0.062093046 -0.030299004 0.012908385 0.0702998 -0.12308873 0.22159754 0.03856031 0.059863366 0.026305107 -0.086763375 0.10766792 0.15368623 0.0996329 0.051353548 -0.007858267 0.17151022 0.011991474 0.040424008 0.16674207 0.009979437 0.010884701 0.08266849 0.010936376 0.29668608 -0.06582109 -0.08124183 0.048617788 0.053580046 0.10055774 -0.09340813 0.010323451 0.023020575 -0.038826726 0.07925066 0.06780422 -0.04527032 -0.048759826 -0.14348978 -0.010060122 0.12804678 0.04711744 0.066822745 0.15742716 0.10139487 0.046091735 0.10583287 0.03952853 -0.055253264 0.08475229 0.17208022 -0.08008724 0.21927765 0.06013294 -0.07807372 0.02488664 0.07661177 0.04430633 -0.083500974 0.14658616 0.13286588 -0.15416364 -0.10398504 0.13652219 -0.049931463 0.10663628 0.05367185 0.028907195 0.14293031 0.07252149 0.00251793 0.1793875 0.009371171 0.069168374 0.00012828475 0.09289624 -0.053000253 0.031004807 -0.0023833758 -0.023286177 -0.037270017 -0.03779499 -0.04884698 -0.060283855 0.111543715 0.28167647 0.026534958 0.08683129 0.14104456 -0.013022649 0.12414629 0.099594586 0.04990513 0.36339933 -0.030735426 -0.016340204 0.13407609 -0.023536358 0.0062843133 -0.009201871 -0.02383286 0.28827825 0.12218751 -0.018563956 0.0009529711 -0.06750708 0.06782707 0.04887767 0.13697955 0.049968805 -0.11257812 0.18207297 0.06569123 -0.024399513 0.09052553 -0.057799898 -0.050565105 -0.16121912 0.02349075 -0.029415866 0.081770234 -0.019790431 -0.11514097 0.13198715
0.16038303 -0.19655026 0.051460054 -0.048778255 -0.14968276 -0.28683567 -0.12222025 -0.036574207 -0.005942693 0.07553469 -0.091650516 -0.12168433 0.060153794 0.10916077 -0.18518937 0.04698229 0.18811086 0.014612789 0.16162315 -0.04441875 0.025097888 -0.00024780125 0.0031069736 0.16718304 -0.06510365 -0.027733162 -0.097566076 0.07881583 -0.0050306306 -0.06576598 0.057624083 0.09149687 -0.010172249 -0.17105885 -0.05458369 -0.23694044 0.05087591 -0.14546478 -0.05593769 -0.11207824 -0.07241745 -0.02589994 -0.058891434 0.020410687 -0.043381594 -0.07549391 0.07435436 -0.076786764 -0.050884448 -0.17060867 -0.15186866 -0.1955677 0.027658874 0.07759549 -0.061385665 -0.0986556 -0.06123226 -0.08941003 -0.028570725 -0.020557523 -0.091465816 -0.09363786 -0.13691759 0.0031359242 -0.012306594 -0.06756845 0.02591475 0.16935003 0.01749883 0.021402532 -0.14147021 -0.024619985 -0.1055277 -0.024918132 -0.1697451 -0.006177457 0.017005226 0.0054737283 -0.002930951 -0.09404918 -0.17057526 -0.07742141 0.02970149 -0.01580939 -0.20745024 -0.07833814 0.0072449506 0.011699205 -0.12159622 -0.044270303 -0.051172115 0.027488094 0.09907477 -0.074714005 0.032030944 -0.018319016 0.070477396 0.009599185 0.099956654 -0.16424549 0.012846736 -0.098856494 -0.10334911 0.030480755 -0.23987707 0.007946216 -0.1138331 -0.08166996 0.0064359494 -0.20799352 -0.06421894 0.033686664 -0.07010387 0.010518223 0.1057907 -0.1802518 -0.025009947 -0.05701609 -0.005127437 -0.102625005 -0.10618545 0.13114263 -0.014027535 0.060695063 -0.12906197 0.0419134 0.037855774 0.08116654
0.07038478 -0.04644962 -0.026471488 -0.27447757 0.042565495 -0.020918932 0.17434019 -0.0807018 0.08480471 0.11404251 -0.0042075785 0.052963477 0.13184164 0.14788322 0.037154928 0.17514639 0.010986589 0.025770536 0.23496042 0.13143665 0.040747173 0.07696025 0.13139428 0.029882139 0.0021306933 -0.021878816 -0.09217075 0.1303808 0.03323157 0.13032866 0.12496459 0.115402155 -0.037314165 0.046309393 0.07064275 0.11519158 -0.18066783 -0.037956327 0.06435047 0.0689496 -0.01435717 -0.10461995 0.14385477 -0.009612802 0.056203187 0.023277167 0.030440174 0.010926802 0.041848946 0.019515544 0.19781569 0.03495278 0.11815975 0.050352316 -0.031524103 -0.017120814 0.12965748 0.07820706 0.043778885 -0.10242321 0.026670286 0.06731422 -0.12948258 -0.08654726 0.08158237 0.0779991 -0.0552182 -0.080555834 0.07187011 0.09447898 -0.01699064 -0.19191162 0.07005053 0.1479981 0.13175058 -0.08044112 0.021494279 -0.11327934 0.114398494 0.095436715 -0.0071216533 0.07002643 0.04120522 -0.06902156 0.09874977 0.015916431 0.046025027 0.097978175 0.09900438 0.035199348 0.048951536 0.08173415 -0.097637095 -0.14816247 -0.042913865 0.17284869 0.05006865 0.22570886 0.12759379 -0.076875925 0.02012761 -0.039428953 0.18907724 0.37018433 -0.05804892 0.20623621 -0.10332841 -0.059318367 0.110796876 -0.0573677 0.079051256 0.027399601 0.24773264 0.030876799 -0.010733176 -0.078429006 0.15049636 0.005286471 0.11071393 0.1339069 -0.021202521 0.13404512 -0.042928524 0.057240497 0.029858084 0.0025043394 -0.051426575 0.090640895
0.049422573 0.04472527 0.010200046 0.12966219 -0.08077541 0.23909119 0.055075325 -0.01570994 -0.06230888 0.2089154 0.017120207 0.1270152 -0.026295735 0.09475227 0.13478069 0.14625184 0.122395545 0.13122833 0.15849897 -0.087654635 0.02162658 0.13373026 -0.021685308 -0.04790257 0.025885351 0.0034835578 -0.03203567 0.019058848 0.1954612 -0.017875027 0.2879087 0.11912609 -0.12177121 0.0981283 -0.094039045 -0.04282173 0.10635903 0.14896517 0.14482605 -0.04003898 -0.0058862986 0.036068074 0.0583663 0.18017845 -0.041609213 -0.018598452 0.12017091 -0.027337546 -0.06480384 -0.017866487 0.18382062 -0.040705614 0.10613121 0.21562724 0.0028328681 -0.09585166 0.10129344 0.04664217 0.08571156 -0.03777039 0.120975256 0.018441059 -0.026200708 0.030075356 -0.20642217 0.050927278 -0.16714156 -0.050327152 0.092808805 0.12837885 0.072819985 -0.15004025 0.0014207943 0.034687143 0.052372284 0.08416453 -0.023917934 0.032233942 0.096867 0.22503594 -0.10196523 0.05918002 0.16817187 -0.07057073 0.037644494 -0.058834657 0.15233536 0.13061689 0.08239979 0.5142083 0.14650671 0.04103366 0.12037694 -0.018731808 0.06727383 0.07394406 0.22549893 0.5700556 -0.03574296 0.14232424 0.00847704 0.039005853 0.05279587 -0.02454827 -0.076146275 0.0951181 -0.017381657 0.12652583 0.043067876 -0.10688905 -0.079499684 -0.15547602 0.0744659 -0.044900037 -0.07619999 -0.08616982 0.04576675 0.33594593 -0.03956171 0.037238978 0.050756335 -0.021659382 0.0033379232 0.08328067 0.121055655 -0.13610633 0.079350226 0.10443569
0.13254043 0.17418355 0.0008476948 0.12844026 0.091417916 0.0912033 -0.071005575 0.008739351 0.1313099 0.062084906 -0.04400284 -0.001996513 0.048376713 0.061322395 0.01045007 0.06101202 0.11830663 0.19781922 -0.12235824 0.025733046 -0.0136338845 0.19730379 -0.010402094 0.024656184 0.2153345 0.103994735 0.010017161 0.049186278 0.16155428 0.15754366 0.20754986 0.0006844519 -0.029667925 0.030376337 -0.031644046 -0.1323264 0.077280425 -0.009588957 0.2662649 -0.029355682 0.027891465 -0.016061468 0.12438017 0.09835667 -0.116646506 -0.09837099 -0.027574206 0.11122261 0.11250258 0.10959869 0.097905666 0.06238749 0.04665563 0.183951 -0.068053804 -0.014908133 0.15175046 0.17193009 0.2497045 -0.0142956 0.0797738 -0.0023596568 0.08684523 0.09155215 0.06359492 0.18666464 0.049677175 -0.11435997 0.01201791 -0.01503592 0.050800316 -0.17533076 0.24333377 0.02266862 0.015501183 0.062490523 0.0625148 0.03434754 -0.080708094 0.15594174 -0.07032358 0.19399664 0.115378186 0.0960436 -0.00080474647 0.022348715 0.08687106 -0.085673094 -0.0506507 0.6502242 -0.11925585 0.010108364 -0.047136873 0.115163706 0.016893638 0.20179003 0.042292234 0.5695208 -0.10473585 -0.037169795 0.118228965 -0.22578114 0.07186657 0.31332985 -0.11877311 0.01391248 0.09171002 -0.030824376 -0.0058645774 -0.0138775855 -0.04841515 -0.00914873 0.036957003 -0.07016019 -0.11142837 0.0024811688 0.017328102 0.10265394 0.0070621683 0.1378222 0.024169894 -0.13104765 0.23548096 -0.0142700495 0.18547282 -0.0385899 0.17752539 0.019847516
-0.09319252 -0.051945183 0.090347804 -0.0061887032 -0.08845106 -0.062005218 -0.12933406 0.1329834 0.05467771 -0.18208545 -0.32066014 -0.0803634 -0.03279451 -0.06335514 -0.111785315 0.055818427 0.013240091 0.039008707 -0.08237109 -0.08339947 -0.021488773 -0.1246052 0.05201329 -0.068932824 -0.09006579 0.025877371 -0.15795432 -0.21298963 0.09735746 0.016927525 -0.10360039 0.052390218 0.009219256 0.06050898 0.03550342 -0.019166958 0.050103653 0.049540255 -0.1098453 0.06045146 -0.07373879 0.10186856 0.015502628 0.023653075 -0.13910227 -0.07529913 -0.10229405 -0.05658445 0.02393168 -0.027461028 -0.019120637 -0.13348044 0.02694678 -0.04024033 -0.01760182 0.019920636 0.101398885 0.02171582 -0.015496734 -0.16208842 -0.15338203 -0.004352936 -0.06766826 -0.07494456 0.0014246535 0.051164296 -0.033909563 0.019879645 -0.0199369 0.00883218 0.10514947 -0.045522455 -0.073805615 -0.040305797 0.023665361 -0.02443229 0.05537268 0.0054792543 -0.13136162 0.087920584 -0.037903696 0.10228253 0.049739733 0.028253075 0.030343175 0.09190507 0.011679461 0.09526422 -0.09452137 -0.089809574 0.099035785 0.059117667 -0.03561187 -0.2273488 -0.043800436 -0.049541038 -0.16153136 -0.0065074954 -0.13597271 -0.012310616 -0.040195726 0.0069598057 -0.13175012 -0.0222457 -0.12753345 0.039782878 0.008564855 0.013886799 -0.1481945 -0.08368136 -0.014052478 -0.009975412 -0.051885866 -0.11484296 0.02759034 -0.12311462 -0.042252768 0.08383979 -0.06812164 0.06839255 0.060896218 -0.056283478 -0.24229218 -0.06424028 0.12702003 -0.11637207 -0.0882726 3.5893863e-05
-0.043668956 -0.17042805 -0.09038006 -0.11824791 -0.026077507 -0.028718377 -0.10402387 -0.0035766857 -0.07695068 0.037713658 0.030825308 -0.062576205 -0.124882676 -0.1650198 0.124671355 -0.07620882 0.042424664 -0.037211668 -0.13777943 -0.025704158 -0.22055453 -0.07409492 0.07790309 -0.026340079 -0.19009674 -0.1047068 0.07839993 -0.10090947 -0.10873784 -0.06209592 -0.12636113 -0.010101665 -0.05043231 -0.10068063 0.03277306 -0.04895526 -0.03854868 0.042945366 -0.04469197 0.05439962 -0.10598268 0.09629857 -0.06807774 -0.112548314 -0.085372254 -0.0856254 -0.07980798 -0.049591366 0.028697953 -0.08898163 -0.009003484 0.055499803 0.078327246 0.0457622 -0.018877013 0.15760528 0.10741285 -0.06972602 0.04844088 0.0035773434 -0.021682369 -0.08741677 -0.16822436 -0.04952361 -0.036603704 -0.018183824 -0.07901996 -0.05722431 0.0020101578 -0.051018182 0.008786588 -0.10314276 -0.04960816 0.098560356 -0.0072579687 -0.06540133 0.01979061 0.016494324 0.08086979 -0.007466259 -0.061016984 -0.015308259 -0.054213073 -0.14411795 -0.025010891 0.14124559 0.037861496 -0.14496194 -0.0014873282 -0.022408495 -0.040753648 0.03374771 -0.120885715 -0.10284287 -0.015385066 -0.22533426 -0.011846518 -0.25521737 0.015665786 0.087996475 -0.008529946 -0.01854436 0.076533936 0.027956296 0.13833858 -0.01370649 -0.04275167 0.04833082 0.0870674 0.03353601 -0.045307662 -0.036560085 -0.11828238 -0.068958536 0.18057844 -0.23400061 0.03435848 -0.004595518 -0.09225375 0.027820477 0.09287053 -0.07759914 -0.0294972 -0.23005743 -0.16078876 -0.06356531 -0.06449324 -0.094506204
0.1399974 -0.036116164 -0.23070712 0.015614301 0.076058395 -0.1154531 0.015287852 0.058031045 0.00019622521 -0.074170485 -0.015062035 0.10874998 -0.1123195 0.17922106 0.018446181 0.1396171 0.20627007 0.049910385 0.036217384 -0.08709979 -0.08348903 0.014054137 0.02526753 -0.03960715 0.049912665 0.04100672 -0.06741076 -0.076833956 0.10453448 0.14930195 -0.0002041602 0.08275839 -0.11936094 0.11079284 0.068423994 -0.11531674 -0.02223893 -0.016215002 0.10342158 0.03200752 -0.030235447 0.104136236 -0.10291914 -0.0005377293 0.068670705 -0.03365298 -0.004067396 -0.24964507 0.078756176 -0.048974246 0.23636676 0.13870153 0.002362335 0.058202337 -0.015757484 0.15869965 0.14406662 0.18531321 -0.06797086 0.103641815 0.108934104 -0.021866113 -0.006965918 0.14989305 -0.0055126618 0.166921 0.047549687 0.11673144 0.13300869 0.028419258 0.10130182 -0.031797465 0.08676577 0.13446116 -0.013145147 0.021096503 0.15155876 -0.046775624 0.034926828 -0.06805353 0.19270867 0.09315605 -0.055124346 0.03671961 0.051101387 0.09152105 0.19691822 0.10333836 0.1206772 0.12837484 0.16947366 -0.037726704 -0.07253988 0.07152268 0.23078841 0.09499029 -0.020163687 0.26026964 -0.0094475215 -0.039972287 0.099609174 -0.07870764 0.20487773 -0.08037523 -0.03700699 0.21981207 0.040495854 0.01275885 0.0038416365 0.016248444 -0.016173204 0.046420496 0.1380182 -0.029842226 -0.097826496 -0.0489217 -0.19216947 0.12644807 -0.074202225 0.02993747 0.13285382 -0.07693224 0.016410172 -0.0815694 0.06931889 -0.002787604 0.1633851 0.056551654
0.020566659 0.08474072 0.05096626 -0.11193291 0.095077194 0.1450151 0.095502816 -0.079637945 -0.11781822 0.026351212 -0.055440966 0.050663978 0.1453168 -0.09193504 0.065007426 0.112717725 0.12144273 -0.11353736 0.087652154 0.19549352 -0.0033024263 -0.010416702 0.11464694 -0.01000052 -7.964792e-06 -0.014599977 -0.009813843 0.14266452 0.022881093 0.09990707 0.10718146 0.12635708 0.0078630205 0.0875748 -0.027121717 0.11666993 0.30654863 -0.04038169 -0.0017891275 0.04415843 0.16403571 0.11285991 0.053906545 0.099494286 0.08333242 0.051779076 -0.09210736 0.20802334 0.06405097 0.0017422832 0.048751682 0.19625211 0.19070515 -0.08943998 0.100432195 -0.005358499 -0.042018414 0.11366045 -0.034624763 0.053110555 0.15414375 0.03802108 -0.0184033 -0.011768274 -0.017862247 -0.07711934 -0.0637473 0.12858537 -0.03424084 0.01512254 0.07210467 -0.11358227 0.022274166 0.03188492 0.01966686 -0.05443542 0.06537991 0.056496393 0.120002806 0.07697438 0.17469707 0.039963447 0.15283062 0.24435654 -0.043698143 0.040542535 -0.05985513 0.105765685 0.12813269 -0.011628325 -0.06306127 0.044070248 0.005055102 0.13845667 0.140232 0.09421619 0.094584234 0.10821441 0.13468651 0.23864335 -0.017047577 0.06944206 0.14097057 0.0479446 0.038075887 0.0151836015 0.09163334 0.070159696 -0.0031283475 0.023589129 0.22592692 0.06650767 0.048204664 0.1280794 0.024452789 0.028249554 0.120513275 -0.0404146 0.101843275 0.10857609 0.1932756 -0.03654878 0.106255546 0.0375946 0.21218282 0.021176832 0.0006217081 0.15923814
-0.019232668 0.06999959 -0.060984008 0.12571526 0.05171103 0.16955017 -0.1486433 -0.09369133 0.016747465 -0.04589696 0.18521647 -0.05173952 0.07243476 0.072553545 0.123509236 0.15670913 0.06406047 0.0859231 0.1249878 0.20510523 0.043492295 0.106294215 0.029372368 0.021947611 0.19830063 0.050594904 -0.03262151 -0.03860603 0.0059151705 -0.07987081 -0.008382612 0.080370754 -0.0060058623 0.0070737833 0.13306771 -0.06859096 -0.01211253 -0.026374508 0.0011474118 0.12550694 -0.08454072 0.08030491 -0.1005216 -0.02359368 0.07949569 0.10062973 0.0068852804 0.04378262 0.21492189 0.1746287 0.14488398 -0.008672623 -0.06674945 0.08468912 -0.082981825 -0.0033479854 0.053421106 0.16149577 0.08971089 0.017345034 0.23728797 -0.1334826 0.0033069886 0.09724919 0.062121537 -0.019140527 0.17943963 0.10794522 -0.06409486 0.092825755 0.031552177 -0.14415449 0.13301769 0.29123378 0.21238817 -0.205504 0.031164717 -0.060414154 0.14062859 -0.029026829 0.015800143 0.11783018 0.078813545 -0.098504245 -0.002411717 0.07218155 0.066872016 -0.018941008 -0.07873885 0.052570347 0.0109742135 0.090891525 0.0103498995 -0.1699127 -0.015103075 -0.04466522 -0.10385442 0.14724159 -0.06417765 0.06073586 -0.050291266 0.29478773 0.035155643 0.11867402 0.015069001 0.07314984 -0.005860275 0.051741417 -7.601861e-05 -0.009416734 0.043863475 -0.055413317 0.18314822 -0.010391909 -0.016084952 -0.07765727 0.21401481 0.0019419612 -0.007186189 0.08237727 0.18371174 0.076782726 0.10050579 0.03428503 0.07412429 -0.021740798 0.06796857 0.076227084
-0.041083504 0.13569635 -0.029447699 0.08797849 0.011156389 0.07521836 -0.15592416 -0.077584974 0.09093638 -0.07277548 -0.028559528 -0.022848755 -0.10707918 0.013714529 0.009296054 -0.026590066 0.11631124 0.23845817 -0.021541065 -0.07752876 -0.026375744 0.21408093 -0.0719254 0.039391637 0.18543509 0.035435244 0.08057529 0.10686251 0.026837017 0.112942345 0.013301253 0.10031775 -0.102279216 0.076809034 0.058830086 0.13745727 -0.02701395 0.013589139 0.10627704 0.0423969 0.09190275 0.02842088 -0.002738328 -0.038660627 0.037387434 0.16341414 0.18185556 0.13136904 0.08756226 0.10113846 0.24638885 -0.016862862 -0.023675598 -0.20234944 0.023185868 -0.0058683385 0.054778848 0.11914006 0.1014077 0.007739874 0.090987556 0.18509725 0.008806957 0.036971685 0.012013581 0.029054789 -0.1347863 0.18641075 0.09729833 -0.021134468 -0.05707347 -0.12909216 0.1409865 0.09983757 0.21873653 0.006206342 0.025859548 0.11999244 0.11060156 0.013065175 0.036943406 0.13569462 -0.0027006706 0.021459648 0.041604515 -0.0067560314 0.03952126 0.047264628 -0.0049435883 0.3368368 -0.04689042 -0.08209782 0.1331054 -0.06439162 0.15742524 0.07285606 0.0482996 0.5097735 0.017726189 0.14353475 0.31597093 0.074908964 0.0295823 0.07528856 0.014311801 0.095650814 0.22249158 0.16100125 0.015664872 0.09706828 0.09928315 0.0897672 0.03864869 -0.18322487 -0.049688727 -0.07468122 0.16937098 0.12319425 -0.11583807 0.082235396 0.16423717 -0.15859301 0.053706538 0.16190846 -0.022685219 -0.033850785 -0.092777714 0.1265829
0.036148798 0.1339944 0.07122603 -0.04422152 0.073047645 0.110136084 -0.0043348153 0.07587137 -0.013812127 0.1544983 -0.06058718 0.12483596 -0.077198654 0.044326063 0.13652717 0.11633208 0.29896256 -0.036672276 0.053896293 0.0018591529 -0.061890785 0.057958342 0.06659344 0.027916972 0.06317745 0.153778 0.06854976 -0.10455731 0.08623564 -0.026430294 -0.0016985106 0.09850471 -0.015525817 0.05511049 0.15537284 0.13732862 0.051560488 0.0023531811 -0.0059017534 -0.0057269754 -0.044187706 0.050947197 0.17678463 0.08303319 0.083749115 0.12256274 -0.030237235 -0.13877916 0.018871777 0.13521495 0.031071493 0.14677228 0.056927655 -0.04092485 -0.046063244 0.002692965 -0.047514036 -0.03235729 0.0050504953 0.03568299 0.1306485 0.037291657 0.14257403 0.16332401 0.0029781882 -0.00020070153 0.2586037 0.2997497 0.21639471 0.22771063 0.033794478 -0.16921751 0.08210944 -0.00015434748 0.13251078 0.19737709 0.013218785 -0.040800486 0.07120448 0.019132009 -0.038475078 0.053573076 0.098172426 0.03062418 0.03523663 -0.010157644 0.09417716 0.08150902 -0.077343084 -3.325802e-06 0.14001487 0.09106485 -0.06056382 0.008341387 -0.073641 0.12255463 -0.001934379 0.20604314 0.19042303 0.05897225 -0.04564777 0.0071949502 0.08451143 -0.08937004 0.078261234 0.12392889 -0.032122955 -0.07510413 0.10005631 0.12333273 -0.040150825 0.017322553 0.0719216 -0.022025282 0.053945 0.03435532 0.09120006 0.029958824 -0.04033604 -0.08031642 0.13953978 0.09288972 0.17787722 -0.07107398 0.17861396 -0.0044551017 0.056583717 0.041698102
-0.07226946 0.13095516 -0.09469743 0.03108575 0.1156418 -0.014239573 0.086844936 -0.003964989 0.08833292 0.08648637 -0.0640475 0.16791087 0.102445446 -0.1268029 -0.010124578 0.027889524 -0.0080875205 0.012313781 0.04369266 -0.0038789297 0.099284165 -0.07602996 0.0615227 -0.04653846 -0.044084035 0.026928257 0.054050438 -0.06186913 4.4724835e-05 0.13193339 -0.060740143 0.013260608 -0.1710403 -0.022558503 0.027859315 -0.086875826 0.06027549 -0.11676061 -0.09082542 -0.054124665 -0.047027282 -0.10189576 -0.1784488 -0.07792387 0.017007006 -0.01814528 -0.15606976 0.016297534 -0.1128679 -0.0009140581 0.07082031 -0.03761289 -0.015921129 -0.2659028 -0.13148604 -0.21314411 0.12332739 0.074906595 0.15126279 0.0094096325 -0.09692146 0.010367173 -0.071880855 0.0069759986 -0.0095487535 0.13709253 -0.21140768 -0.10457323 0.014128508 -0.08052086 -0.059974775 0.05112468 -0.07025446 -0.054030392 -0.07563183 0.0141199455 -0.10732101 -0.027381796 -0.10658647 -0.023249723 0.103939004 0.10456592 0.0743835 -0.1294798 -0.05806628 -0.024596533 -0.1054394 0.069132954 -0.14651045 -0.16703777 -0.140154 -0.03284438 -0.010605433 0.020142427 -0.11447337 0.021345252 -0.08312809 -0.12089458 0.03842558 -0.1660802 -0.018487802 0.13739945 0.032728672 -0.03777691 0.11308081 0.0098943105 -0.101000406 -0.049075376 -0.06399377 -0.11674119 0.14461257 0.034853663 0.114468254 -0.060983673 0.021473631 -0.038852233 -0.08317023 0.18920834 0.016867101 -0.09805806 0.022719989 0.120417476 -0.005622512 0.008162085 0.03989642 0.019151244 -0.02473606 -0.061940257
0.033568278 -0.015718492 0.04435858 -0.06813377 -0.032557193 -0.15151645 -0.033341363 -0.013183082 0.05469484 -0.15934443 0.035231613 -0.17583029 -0.06825642 -0.036751337 0.10871469 -0.07317565 -0.009421929 -0.18278094 -0.018695021 -0.11976961 0.028950933 -0.017105175 -0.033264536 -0.086841434 -0.09781207 -0.021092588 -0.016109776 -0.016803263 0.052724678 -0.052593287 -0.063342236 -0.14658199 0.2108022 -0.015292376 0.09881928 -0.0137142725 -0.15002283 -0.004205992 -0.08487781 0.00369423 0.07314113 0.015500428 0.029717641 0.05921999 -0.05540259 -0.012851081 -0.15425327 0.13632031 -0.17916119 -0.049700633 -0.041484203 -0.026209608 0.021237155 -0.013148642 0.04721763 0.024230978 -0.083662875 -0.21643823 -0.00793203 0.044565674 -0.13186756 -0.045146205 -0.08828625 0.107802965 -0.013761467 -0.10429404 0.025610136 -0.09662391 -0.03118319 0.06767831 0.0818185 -0.19228722 -0.00020858055 -0.03565559 0.0021110792 0.13878289 -0.09280233 -0.013065972 0.052128945 0.0068600713 -0.020137342 -0.11154213 0.063133724 -0.10578498 -0.13667701 0.14483888 -0.0867329 -0.08713258 -2.661727e-05 0.00046379655 -0.023800522 -0.14130186 -0.09380445 -0.04754428 0.14636235 -0.19314757 -0.11515997 -0.08900916 -0.0049200663 0.025292674 -0.010406387 -0.13062306 0.034446687 0.025584772 -0.1247365 -0.0993201 0.10236902 0.06103109 0.015618087 -0.028646808 0.053854108 0.05620067 0.030440623 -0.05285798 -0.06486411 -0.10953762 -0.04097819 -0.040266015 -0.15290941 -0.07846637 -0.005651211 -0.11155569 -0.08495142 -0.12506452 0.0046741883 -0.10823827 0.07518921 0.01974615
0.10661556 0.09413991 -0.057535376 0.049662713 0.06656354 -0.055168934 -0.013712429 -0.23775962 0.29203898 -0.07043408 -0.07224913 0.12376742 -0.05869185 0.052409984 -0.11081565 -0.04371639 0.027756909 0.08531368 0.10887038 -0.028930964 -0.038451158 0.14167994 0.14046964 0.03185207 -0.049220696 0.12429207 0.08917562 0.17141043 0.22148935 -0.022297962 -0.021514611 0.047435317 0.090553455 -0.110363014 0.04409319 0.13263468 0.12609266 0.08666831 0.039335612 0.02192054 0.019432863 -0.029343538 0.081725456 -0.057104327 0.096359655 -0.010436589 -0.07645531 -0.036026612 -0.015706275 0.10941364 0.08147127 0.15221801 0.00031952982 0.15809675 0.2309445 0.029507486 0.037518326 0.12813501 -0.06199753 0.14556506 -0.025206853 0.12180638 0.08080162 0.07964602 -0.01100555 0.11892458 -0.104595825 6.3096675e-05 -0.035711545 0.04290225 0.037948657 -0.15802082 0.21937552 0.0052425056 -0.009962287 0.07507032 0.0430084 -0.1222985 0.10162125 0.03493101 -0.12342482 0.11623616 0.21206199 -0.06269447 0.11221763 0.1476981 0.089103594 0.052505296 0.13553178 0.03812441 -0.07049927 -0.109895416 -0.11092702 0.10838655 0.009916968 0.021010144 0.038013242 0.026554894 0.059408084 0.016621083 -0.018426675 0.14746971 0.14632712 -0.0036756827 0.25496113 -0.01700024 0.008082931 0.07654073 0.07918187 -0.005481131 0.07307974 -0.029696038 0.1603231 -0.23136482 0.034288593 -0.010313085 0.030398486 -0.08699 0.10617732 -0.15683658 0.087372065 0.03747804 0.15782894 -0.08273046 0.115167886 -0.065582134 0.12877212 -0.0021631632
-0.18669118 -0.06807399 -0.0635699 -0.023875179 -0.034958847 -0.023285292 -0.16279323 -0.061540052 -0.018559849 0.054661985 -0.04031096 -0.066552706 -0.14874466 0.04878051 0.03784214 -0.0368178 0.01895049 0.20700976 -0.10695369 -0.18576695 -0.07886431 0.038758826 -0.06413602 -0.19040607 0.024605842 0.05322654 0.037184402 -0.022517728 -0.08089365 -0.07322194 0.14122558 0.027498856 -0.094102226 -0.03180632 0.08182661 0.10205596 -0.009213139 -0.020938655 -0.09356181 -0.109912746 -0.20764667 0.033046383 -0.042947352 0.05125253 0.0478718 0.010535809 -0.033450183 -0.16454284 0.063949816 -0.20089872 0.06027307 -0.01410216 0.053696603 0.086048886 -8.063909e-05 0.022156961 -0.021290967 0.14863472 -0.1177656 -0.18640395 -0.040184088 0.021810029 0.07979055 -0.15421678 -0.10357245 -0.12812123 0.06261128 -0.09909019 -0.15469258 -0.051151752 0.01302835 -0.0019489288 -0.06787852 -0.22386616 0.08808603 -0.15252623 0.08763799 -0.0124945715 0.01688866 -0.004471005 -0.057566784 -0.04365774 -0.08245389 -0.027903028 0.060417444 0.054527007 -0.032058667 0.22170931 -0.1196902 -0.16749758 0.0070164283 0.06257831 -0.07327702 -0.0661819 -0.09616593 0.058958672 -0.016955288 -0.13014324 -0.06261845 0.09507246 0.09121071 -0.010495258 -0.13409543 -0.12966144 -0.08993672 0.07020208 -0.01923627 0.13112918 -0.056761894 -0.11181352 -0.13121505 -0.009890218 -0.05416259 -0.05671064 0.120640755 0.042063583 -0.073815405 -0.035205774 -0.01490727 0.10352919 -0.0020293135 -0.092782676 -0.18721446 0.03946558 -0.1765223 -0.10574432 -0.061442308 -0.12457834
-0.11137255 -0.12559263 -0.054267444 -0.041543517 -0.10273012 0.037792556 -0.068070434 0.12993783 -0.09634743 -0.18976101 -0.1647878 -0.1196845 -0.116282314 -0.055475883 -0.0828948 -0.06449678 -0.018545128 0.05347647 -0.024576433 -7.762739e-05 0.10078694 -0.07072587 -0.066658445 -0.09491147 -0.07622215 0.0039231 0.015516346 -0.013019781 0.0027133147 -0.05125517 0.1556296 -0.07656016 -0.072513625 0.014253478 -0.053150497 -0.032611582 0.13645871 0.096812196 -0.020289456 -0.101833664 -0.13885906 -0.03319007 0.01461526 0.06267649 -0.013211522 0.016772531 0.035320323 -7.398491e-05 -0.05847718 0.013105657 0.10345968 0.03315288 0.0903985 -0.11620238 0.06992477 -0.10826654 -0.08676976 0.07450948 -0.113425836 -0.09575718 -0.14809316 0.04501873 -0.1669884 0.11775166 0.040426422 0.089062616 -0.08365651 0.0044439523 -0.08292254 0.008490279 -0.11433583 -0.043394126 -0.014707734 0.00888715 0.012010439 0.018404813 0.023028249 0.038360685 -0.16707899 -0.03926637 -0.010421128 0.023501018 0.06146725 0.1451011 -0.12131736 0.060872678 -0.0030562037 0.086705595 0.034622423 -0.13044108 0.1480089 -0.18839931 -0.08879823 -0.08484734 -0.18171369 -0.11398522 -0.08864109 -0.079720065 -0.08154734 -0.1283314 -0.043675832 -0.09126921 0.017903728 0.017957108 0.009992648 -0.09009178 -0.17265107 -0.037055407 -0.069061264 -0.13201831 -0.013796857 -0.060722318 -0.08415744 0.014607068 -0.09387273 0.019075654 -0.061378222 -0.0016473972 0.023567433 0.1809249 0.09405934 0.02633142 0.15580638 0.06759631 -0.14181146 -0.003179896 -0.07630541 0.015052658
0.064269595 -0.012903719 -0.11858461 0.14555725 0.095334746 0.041180894 0.015837807 -0.025974108 0.052194282 0.045262147 -0.042174287 0.049714763 0.12218218 0.019762125 0.07929079 -0.060970686 0.37850183 0.23143113 -0.0065395604 0.080340765 0.11720615 0.088439 0.06481616 0.26471755 0.055905476 0.077775605 0.06536751 0.13560382 0.2687202 0.23545296 0.15993623 0.07361396 0.20867494 0.21280052 0.15052393 -0.083582245 0.20555508 0.1998368 0.04745006 -0.03273884 -0.06301898 0.04872619 -0.17543083 -0.07958519 -0.25905567 0.07083822 0.18337126 -0.10607263 0.025563816 -0.0008112837 0.22586562 -0.10860846 0.16980419 0.31927603 0.14482367 0.019620465 0.052561995 0.124664836 0.030838622 0.08854933 0.22793716 0.08212454 0.1027634 0.5580184 -0.067559294 0.03914089 -0.0054406943 -0.023444168 -0.15995684 0.099580474 0.090963855 -0.30986053 0.26884684 0.08606228 0.027975574 -0.021705 0.0256104 0.010602261 0.19550587 0.09313266 0.11175571 0.0148453815 0.19146661 0.022938915 0.16829692 0.05900292 0.1269033 -0.11729278 0.063560925 0.99152327 0.09220303 -0.0643059 -0.08396412 -0.00884581 0.114031196 0.16931073 0.10576789 1.0355432 -0.18205594 0.17587847 0.025700293 0.087126076 0.14800265 0.19223888 0.11821897 0.11651695 0.22368215 0.0693514 -0.038678877 -0.05428019 -0.016529087 -0.07716498 0.12603489 -0.0001371264 0.03189685 -0.10089061 0.031153496 0.04631821 -0.05903806 0.01902414 0.04148097 0.012411025 0.12861389 0.086327754 0.122416146 -0.060007587 0.17490713 -0.015694113
0.1554157 -0.046563286 -0.08691591 -0.035545856 0.11892063 -0.05467537 -0.12070163 0.12239116 -0.025322448 0.032945506 0.018240489 0.05823942 0.02158869 0.17506161 0.0890834 -0.013909856 -0.028442955 0.036089577 0.06436111 0.092854135 -0.025690151 0.13063055 -0.24556305 0.06431463 0.09223464 -0.08028737 0.07639446 0.18157935 0.17768131 0.07445706 0.2410864 0.15128115 -0.0062845172 -0.06298079 -0.04790261 -0.0810104 -0.06969987 0.17667392 0.068646245 0.017275607 0.10137744 -0.044640627 -0.033378866 0.1664615 -0.06054806 0.015643962 0.041305926 0.05862997 0.052886333 0.036521908 0.13790584 0.03603277 0.1722558 -0.12573707 -0.025114682 0.014884168 0.05617713 -0.02206201 -0.10447396 0.11181058 0.15833955 0.08729396 -0.23044173 0.14278346 -0.03648136 -0.037488062 -0.025872706 0.028507857 0.07757986 -0.057835773 0.050301936 -0.17505597 0.23043036 -0.10813764 0.06824638 0.18772179 0.026855886 -0.07208864 0.018472506 0.13098551 -0.023860471 0.08271385 0.12009106 -0.0069660973 0.021264147 -0.0021058249 0.046008646 0.13256381 -0.00090233167 -0.1701466 0.18712676 -0.1319501 0.03352708 -0.097563766 0.035804726 0.18092173 0.0952179 0.04263437 0.021346565 0.04631207 0.025390288 0.21745175 -0.116962604 0.19181618 0.017827703 0.18650186 -0.2612219 0.07540288 0.10673979 0.019605823 -0.014875679 0.04658527 -0.028369304 0.07885371 0.024109242 -0.09272331 0.07505106 0.13143189 0.15453853 0.132473 0.020198587 0.05281036 -0.08997053 0.09723492 0.06320427 0.085460044 -0.20960249 0.09055142
0.11829809 -0.14593737 0.09318571 -0.15729477 0.1269502 0.20647538 0.022796798 0.102839485 0.091724984 0.15693256 0.009151703 0.015726874 -0.08625977 -0.097259976 -0.06747653 0.03197916 0.04481303 0.19682465 -0.13818745 -0.15810977 0.118579425 0.077332675 0.07539651 0.09963994 0.115757756 -0.09862098 -0.08341346 0.06486427 0.13135172 -0.013649434 0.033275224 0.07816051 -0.14723597 0.08421998 0.19361858 0.013382426 0.06722679 0.039429523 0.0015551706 0.13866507 0.091356434 -0.08496871 0.12307552 0.17090316 -0.04185676 -0.025738426 0.12030325 0.026002362 -0.08509396 0.07023166 -0.012319543 -0.19946387 0.15540244 -0.0077588065 0.03999437 -0.017590258 -0.03079354 0.13962278 0.1793056 0.12509747 0.09326627 0.006367671 0.12517533 -0.10934148 0.06963077 0.13484316 0.003917601 0.07651098 0.003487936 0.009259159 -0.008791626 -0.1799822 -0.020954825 -0.07123151 0.14304616 0.30401638 0.08741906 0.01314939 0.14691497 0.061157394 0.058637235 0.16673167 0.038159218 -0.04484489 0.07678715 0.07559305 0.07743915 -0.10789129 -0.07296889 0.12452683 0.06518336 0.078350134 0.0010336401 -0.021143712 -0.06547548 0.16562526 0.09077317 -0.045803957 0.009700192 0.026596565 0.031225564 0.07499777 0.07124535 0.09436934 0.09442786 0.03157995 0.081188895 0.11555333 0.02216886 0.14677182 -0.03444357 0.09839388 0.17552397 0.00028730594 -0.054599077 0.017945867 -0.004216287 -0.020119356 -0.035580426 0.0052639972 0.06666683 0.018988324 0.078762 0.12012357 0.08387519 0.022887807 0.10918915 0.0425152
0.00868444 0.0787888 0.06473367 0.13530293 0.040009655 -0.088296436 -0.0302036 0.070935465 0.065046385 0.08514545 -0.027485445 0.07921562 -0.022633536 -0.022518959 -0.030258592 0.11595651 0.19293237 0.016361928 0.13211966 -0.093147285 0.21331671 0.019468557 0.04876568 0.033912785 0.15143616 -0.067757085 0.112210155 0.05414012 0.11207416 0.10807019 0.2796076 -0.035168692 0.13864608 0.15223692 0.018635934 0.1643791 0.033087324 0.100839786 0.17805475 0.14966562 -0.07044094 0.16693664 0.031330835 0.07317214 -0.0017510464 -0.08076694 0.01996007 0.15296438 0.08873191 -0.025169117 0.06849232 0.08494531 0.05272855 0.16517027 0.16636172 -0.0005545591 0.1251049 0.07059992 -0.03451169 -0.066632755 -0.045303125 0.07930526 -0.13366891 0.09670154 -0.03981506 0.12928702 0.052080233 -0.0048608296 0.15654835 -0.010660114 0.14817071 0.03125818 0.01688602 0.057997406 0.16817035 0.021636967 0.057807446 0.06508293 0.081969924 0.09948546 -0.040148072 0.02424019 0.099629566 0.032269113 -0.10048283 0.097299315 0.049218077 0.13743967 0.08978285 0.10462707 -0.09498597 0.0014166909 0.050673127 -0.18045127 0.11772549 0.12441377 0.03623102 0.17172535 0.021692708 0.16864482 -0.11769157 0.17652743 -0.00044506 0.09575349 0.083573624 -0.08521537 -0.032249317 0.12510234 0.1512171 -0.05373619 -0.093423255 0.07568466 0.051947024 0.066431075 -0.0027461064 -0.08108025 0.018506754 0.14510879 0.12673339 -0.1279128 -0.004292181 -0.011324872 0.069397144 0.020648444 0.117216006 0.032350022 -0.048360124 -0.018177683
0.093843885 0.12072757 0.038894944 0.10216723 0.13279112 0.20510338 -0.050158285 -0.03342204 0.23083772 0.012374344 -0.056088764 0.059252277 0.11705434 -0.07834421 0.0441234 0.061932713 0.12272205 0.09153686 0.016456977 -0.067840084 -0.006761733 0.029700624 0.06920803 -0.07066362 0.010401547 0.11139501 0.14093134 -0.03421789 0.16880748 0.31097582 0.056639537 0.050026674 0.14213581 0.069742545 0.06270721 0.06925168 0.0607533 0.055919614 0.03523285 0.076977216 0.020258892 0.03826325 0.036392722 0.10460618 0.0061187204 -0.008703963 0.18597837 -0.011603226 -0.03189267 0.18690693 0.1451236 -0.049578987 -0.002969242 -0.028376877 0.07619852 0.05308139 0.18453152 0.06904294 0.079234555 -0.0518046 0.12795202 -0.08838618 0.032724656 0.029912962 -0.0012084377 0.16121916 0.001822265 -0.07633372 0.10154557 -0.10437215 -0.03662735 0.0059482073 0.116540425 0.18078803 0.20519865 0.08796805 -0.0039899447 -0.093076706 0.16612782 0.08559045 0.04993603 0.08303529 0.06504999 0.008207123 0.13536371 -0.12640567 0.0767546 -0.07230111 0.027392915 0.49274138 0.04121417 0.07091779 -0.012590467 0.009008807 0.10634025 0.02074079 -0.018980118 0.5295472 -0.11008535 -0.12249703 -0.00035584887 -0.04044651 -0.012704405 0.2652784 0.20803683 0.051360343 0.031584844 0.0077626645 0.089985244 -0.1435325 -0.095390834 0.018807266 0.09965931 -0.07603273 -0.038927794 0.031537566 0.003275247 0.06510977 0.17540893 0.06964609 0.0927854 -0.010041569 -0.1690128 -0.004095422 0.013097927 0.055816013 -0.0053573507 -0.057051014
0.11084543 -0.12304533 -0.019794056 0.06908919 0.07499773 0.09594858 0.010987726 0.00807798 0.20288423 0.018696265 -0.06306905 0.04177134 -0.040586017 -0.087410055 0.12942533 0.13040048 0.11587829 -0.014269782 -0.0783825 0.13384806 -0.02866109 -0.0932968 0.024380114 0.14926226 0.18974826 0.04415785 0.09595801 -0.06387353 0.11490548 0.12732866 -0.030634735 0.059659816 0.02865443 0.17801522 -0.040947333 -0.030623296 -0.036285877 0.21037222 0.16802058 -0.18777716 -0.14398508 0.042280164 0.0750472 -0.07771561 0.14025238 -0.0809516 -0.028061759 -0.055276405 0.0010342557 0.056037176 0.07708926 -0.1149043 0.115685545 0.16172329 0.10357413 0.08316412 0.1001104 -0.022135269 0.07238225 0.023916269 0.0016753376 -0.027734874 -0.035870854 0.13225934 -0.116754934 0.22629517 0.11288414 0.095735945 -0.1748056 -0.0042738174 -0.045077957 -0.083117984 0.06863073 0.14614046 0.07215717 0.02011453 0.055261254 -0.018977026 0.05968083 -0.12475723 0.027198454 0.13236247 0.08728334 0.04748446 0.15489207 -0.023972 0.13617998 -0.008120864 0.007776552 0.055412047 0.08981637 -0.09152983 0.1083354 -0.085688435 -0.02361696 0.16166055 0.109733336 0.29827982 -0.12369808 0.1213763 0.089494795 0.097388744 -0.067115724 0.109982304 -0.027696887 -0.012591659 0.15157044 0.10001976 0.049726132 -0.005754952 0.29616567 -0.10318154 0.21682474 0.0016632179 0.11919157 -0.105388075 0.11495579 0.16443394 0.100553066 0.08987424 0.1566514 -0.10284225 0.095427565 -0.13478002 0.016939633 0.00961996 -0.02712359 -0.02063936
0.024767434 0.2518747 -0.022201242 -0.035842568 -0.007226528 0.17043376 0.19839415 0.042342845 0.06734236 0.08688319 -0.07159982 0.0076549463 -0.07754471 0.02229517 0.024350911 0.08323827 0.19273019 0.20300865 0.00086602947 0.07793283 0.09860614 0.2546092 -0.06145132 -0.061005972 -0.061433997 0.037298653 0.04045063 0.041409545 0.13241987 0.11434747 0.06892922 0.19957177 0.0697772 -0.0039877337 0.2496751 -0.017156923 -0.14208794 0.099868186 0.19244094 0.00070117984 0.011564909 -0.061416965 -0.17794332 -0.059037644 0.039806522 0.050954465 0.015055409 -0.020762095 -0.04496221 0.13952737 0.2098333 0.011277048 0.1873228 0.12399984 -0.103775844 0.04182476 0.15881252 0.11016424 -0.07002458 0.107080266 0.11056705 0.02699948 -0.03683674 -0.0043544113 -0.18312182 -0.041777533 -0.0062121307 0.049764782 0.02894211 -0.047075976 0.031087384 -0.11753985 -0.008040739 0.23009624 0.026368955 0.15886499 0.09011444 0.096643984 0.13132112 0.16209899 -0.016518507 0.0832073 0.12660861 0.07953251 -0.15009914 0.064979926 0.08575247 -0.092688166 -0.0339259 0.48895574 0.026560223 0.08799651 -0.06567793 -0.1996757 -0.0074992157 0.13381734 -0.04461669 0.06823937 -0.088739924 0.019920643 0.114655115 -0.0076912334 -0.104168944 0.054307923 -0.12611204 0.17305182 -0.22658697 0.11990903 0.21755609 -0.056596823 -0.15915646 -0.042259242 0.18279946 -0.103243865 0.025849111 -0.03883224 -0.06234818 -0.042361792 0.069250725 -0.20261453 -0.09509557 0.04267877 0.032639686 0.03342628 0.05091614 -0.0010907132 0.022465067 -0.03522316
0.092504606 0.21446043 0.015466491 -0.05880808 -0.08913525 -0.006261573 0.109020405 0.059274256 0.009891838 0.09929165 0.21849164 -0.034555357 -0.06827595 0.059083667 0.1509829 0.055864822 0.24880601 0.18367045 0.01363918 0.057372257 0.043174937 -0.029097494 0.1833511 -0.0077876598 0.29100558 -0.021027226 -0.20680948 0.008837541 0.16533008 0.0720111 0.10906356 0.13380118 0.066048786 0.00210952 0.075927325 0.035480585 0.2136841 -0.13808955 0.118116096 -0.09691803 -0.05091448 -0.098552845 -0.03307269 -0.0026027018 0.034580275 -0.21848758 0.014177006 -0.0031027878 0.08742108 0.048998877 0.13826267 -0.056763954 0.10043682 0.2106219 0.12895505 0.044578418 -0.08316023 -0.015942652 -0.16283303 -0.086360216 0.23340067 -0.14614227 0.020161314 0.17865641 0.038412917 -0.074310124 0.06883743 -0.16357435 -0.028372848 0.07630029 0.009594838 -0.13334921 0.114506476 0.027738871 0.17741507 -0.045258548 0.12173264 0.073991835 0.05433024 -0.0497323 0.03490971 -0.12725803 -0.022559881 0.2784665 0.12946461 0.059248056 0.09232542 0.020448832 0.17682509 0.5002829 -0.0307315 -0.10097513 -0.072199024 -0.058505204 0.14647788 0.16634826 0.07669543 0.7401359 0.08140756 0.057673536 0.04900182 -0.011806295 0.31500533 0.050744645 0.22360907 0.058820967 0.060914442 -0.052810747 0.17996992 0.037659544 0.10714782 -0.07559222 0.098611504 0.06907737 -0.017293181 -0.14685242 0.13408157 0.12747316 0.18971878 -0.0040444694 -0.032571524 -0.03237486 -0.062543206 -0.018849589 0.1344185 0.097563826 -0.15269531 -0.028228056
