-0.013944003 -0.2044238 0.09871932 0.03213953 -0.0056434874 0.034350634 0.029085439 -0.073692255 0.01789967 0.4953769 -0.21153653 0.09357841 -0.032587815 -0.047747884 0.06130041 0.29997826 0.38519728 0.4411228 0.041519467 0.110603325 -0.018094044
0.00073374866 -0.15097262 0.039690934 -0.0807563 0.24140087 -0.12459322 -0.06580001 -0.01569115 0.043040678 -0.06215751 -0.08716542 0.47560188 -0.16073465 0.0724924 0.003596463 0.037894733 -0.088658124 0.24862202 -0.045142796 0.4432025 -0.03156843
-0.14711541 -0.13876742 -0.0018854896 -0.059085097 0.052942503 0.02998021 0.06361451 -0.08346052 -0.10091315 -0.036376096 0.06786315 0.22575001 0.0094211195 0.376991 0.13067599 0.037887797 -0.24211909 0.20986748 -0.19042188 -0.074714035 -0.016214741
-0.10619056 -0.16022173 0.09217817 0.06043634 -0.09491747 -0.007192922 -0.04048501 -0.30007142 -0.12802163 0.14251703 -0.03640085 -0.15109882 0.24740207 -0.046045735 0.28208995 0.01874185 -0.35491613 -0.098769255 0.26858714 0.08716615 -0.032859635
0.031339902 0.03902683 -0.01045386 -0.084222235 0.20991252 -0.20437282 0.0081723025 -0.05446712 -0.07979349 -0.06482158 -0.22148374 0.011848842 0.015115016 -0.01056986 0.02247363 -0.03488062 0.035667673 0.10814607 -0.22669938 0.25753093 -6.7208406e-05
-0.02069001 0.16509786 -0.042209834 0.07705553 0.16435649 0.073456265 -0.104201734 -0.03522993 0.018880926 -0.16471337 -0.24754088 0.2055553 0.037741564 0.09745723 0.058818523 0.027218094 -0.096225664 0.16242664 0.050839745 -0.0346342 -0.007923177
0.031247176 0.19190517 -0.092728905 -0.08930665 0.17790762 -0.14484334 0.17512815 0.2292875 0.08055377 -0.020789197 0.21184053 -0.2065755 0.1467683 -0.05798537 -0.27166837 0.09581173 -0.024694387 -0.21255523 -0.0572294 0.21203405 -0.09216156
-0.15677245 0.11975025 -0.0966299 -0.03374023 -0.13725103 -0.062219065 -0.014334709 -0.068831615 -0.15336213 -0.07771853 -0.033953723 -0.13838695 -0.022536924 -0.12950274 0.03228494 -0.091108814 -0.16966315 0.06925288 -0.024837032 0.056067254 -0.018821042
0.00937697 0.15521744 -0.0031853726 0.19445395 0.026275797 -0.08817062 -0.0298503 -0.030067094 0.003924181 -0.043948308 -0.59122634 0.2395602 0.08374966 0.058539808 -0.041446272 -0.12932502 0.4038732 -0.088391 0.69355214 0.3703278 -0.010428327
0.00312302 0.16507372 -0.33029374 0.20055099 0.036655094 -0.080855824 -0.007552923 0.023123901 0.028770283 -0.12767929 0.106660314 -0.15079705 0.13531972 0.0002818276 0.044742916 -0.036566176 0.25254068 0.023414083 -0.15304962 -0.15788707 0.0072427685
0.07789801 -0.22043638 -0.029932152 0.014025886 0.046823252 0.046740167 0.109494746 0.16956177 -0.17286716 -0.31025374 -0.014513078 0.10703536 0.014465078 0.25128224 0.15012223 -0.06528219 -0.2304446 0.06994129 -0.08385794 0.025373124 -0.019333571
-0.0006185303 0.06225054 0.028250178 -0.06668835 0.33296072 -0.13119987 0.09960009 0.02760994 0.07585882 -0.071588375 -0.10393839 0.19491534 0.011749637 -0.08392855 -0.017257 -0.09163425 0.09337253 0.17723665 0.09369526 -0.06720613 0.093285516
-0.04677322 0.021369286 0.15416534 -0.050154116 -0.02668749 0.06589123 0.06615511 -0.29815632 0.036890022 -0.00042217533 -0.17026962 -0.10773274 0.008611806 0.005271584 0.28504765 0.04227302 -0.009179281 0.11314775 -0.09973125 -0.02732281 -0.093222395
0.017781738 -0.20132488 0.044272266 0.113335185 -0.13208394 0.08770235 0.2469501 0.17970692 0.057509243 0.17594989 -0.25601286 -0.050281253 -0.017996183 0.30479938 -0.05140441 0.041053355 0.10641438 0.06561921 -0.035194103 -0.112310044 -0.092183135
-0.0058768117 0.13781671 0.15987252 -0.07820961 -0.022023434 -0.07773281 -0.015394761 -0.03534783 0.0471624 0.41540068 -0.1450669 0.20695616 0.052712932 0.017834183 -0.005279741 -0.070086375 -0.25754255 0.05794895 0.20324655 -0.11423028 0.020575143
0.047627546 -0.13620698 -0.09940495 0.15287821 -0.020037677 0.084148236 0.016151696 0.14187269 -0.03060324 -0.33256152 -0.17752266 0.10856638 0.084965296 -0.054020092 0.078312315 -0.18785827 0.3657308 0.23165539 -0.00012333613 0.034126446 0.0079978425
0.0024131367 0.12229334 0.0304611 0.089726426 0.009357819 -0.015644355 -0.00200045 -0.024096657 0.05695578 -0.17424771 -0.576902 0.02030739 0.17741342 -0.00874551 -0.12375843 -0.05188021 0.29871795 0.050770063 -0.14709295 -0.101535715 -0.0028851496
0.12571672 0.15406203 0.07202596 0.05556521 -0.017000355 -0.20547001 -0.04032494 0.26919815 0.11851953 0.28715235 -0.23752622 -0.22794756 -0.090646565 -0.018010668 0.102322906 0.19131337 -0.08537564 -0.0032488024 0.016024122 -0.12063772 0.021607067
-0.25078833 -0.32823473 -0.07703967 -0.11127291 -0.020601565 0.22702739 0.035657912 -0.048029963 -0.17597046 -0.09249959 -0.20911773 -0.012290716 -0.06221195 -0.1335269 0.09501669 -0.14738753 -0.03913874 -0.11525762 -0.24886814 0.1117693 0.0429269
0.19047245 0.08288878 0.11837141 0.019057212 -0.07647541 -0.04294599 0.1452705 0.16544412 0.0013445434 0.020697808 -0.03791331 -0.01642136 -0.0057945987 0.12559596 -0.103620075 -0.09092403 0.07404557 0.18044409 -0.03151904 0.19402874 0.15154777
0.0022050731 0.34921134 -0.019045113 0.20378692 0.008681967 0.095277034 0.0029714697 0.006253914 -0.06906212 0.124337554 -0.21013837 0.011628987 0.011805422 -0.005356444 -0.06441069 0.1644548 -0.7515209 0.3361877 -0.012819624 0.14819747 0.0054202494
0.03638621 0.043494213 -0.1519264 0.039654367 -0.09272186 -0.02068994 0.14834271 0.012961193 0.024477258 -0.17594936 -0.26536462 -0.1512129 0.03438693 0.25070783 0.06379775 -0.04659735 0.02217715 0.15794516 0.2764639 0.36527053 0.04613966
-0.011354081 -0.37785774 0.29282537 -0.075230695 -0.01035981 0.063898884 -0.003774776 -0.056390807 -0.1114693 0.408907 -0.2552128 0.0056610876 0.25949773 0.0069779768 0.053709805 -0.05542908 0.4504705 0.27714908 0.09376764 0.13793086 0.001897675
0.0324354 -0.060644664 0.026695898 0.1040705 0.00024992874 -0.07517093 -0.1664446 -0.030326307 -0.15956326 0.16223322 -0.074296735 0.0018593535 0.039262746 -0.28554174 -0.000958325 -0.006259725 0.0037239916 0.10613289 0.05178161 -0.035242364 -0.4276905
0.027278328 0.2080852 0.020891843 0.1713065 -0.008964172 0.0036311187 0.050728295 -0.03132099 0.18770303 0.22914067 -0.065769374 -0.013679138 -0.022876063 -0.12904704 0.1660805 -0.16002166 -0.12919568 0.049042705 -0.12925234 -0.18319711 -0.07563526
-0.011602182 0.034632344 -0.026275745 -0.111909285 -0.20659256 -0.026105978 -0.016373472 0.018049281 -0.083771475 0.032365773 0.06823581 -0.3285862 -0.11727651 0.016087374 0.01325087 -0.18721454 -0.024455229 0.37217656 0.057119694 -0.23935257 -0.01532783
-0.01459513 -0.00090259744 -0.1929544 0.065707184 0.00070514384 -0.041430634 0.07653525 -0.10297737 -0.29962093 0.24884766 0.114344105 -0.061228693 0.038665194 -0.11469565 0.014125359 -0.123609036 -0.28100115 0.14920603 -0.15970461 -0.04019727 -0.038708903
0.041413784 0.16622719 0.030911142 -0.04187923 0.060720943 0.15377393 0.034842584 -0.121818155 0.30223212 -0.09532104 -0.18531664 0.036350533 0.04956532 -0.08537771 0.0762524 0.16144879 0.21930212 0.2858204 0.019921022 -0.021561421 0.031501573
0.014883711 0.1534562 0.0040745833 -0.08641187 -0.008785744 0.031737603 0.0055750236 -0.023835972 0.10162099 -0.03354624 -0.4527008 0.037925586 0.24661595 -0.029469363 -0.03537184 0.094847575 0.24474804 0.14345959 0.15677325 0.09094087 0.033490982
-0.0014078366 0.15386662 0.048058506 0.18568707 0.011633901 -0.01331284 0.010424583 -0.020950396 0.10053145 0.45372257 -0.08710988 0.28404096 0.1858603 -0.039441455 0.00796736 0.071802124 -0.09747362 0.0388988 -0.12330491 0.17798935 0.009298548
0.02810304 0.118562505 -0.16053823 0.022673998 0.20830826 -0.074783295 0.03044116 -0.07533261 0.03846695 0.21573722 -0.18812978 0.15211841 -0.1983347 0.12821297 0.0067302953 -0.11177573 -0.016306937 0.054795876 0.1646676 0.099709325 0.04796498
-0.014317155 -0.20565927 0.28159612 0.1493135 -0.020437002 0.09610772 0.011531079 0.009114685 -0.15942968 0.2533832 -0.17647336 -0.04799487 -0.059943363 -0.024241302 0.0432758 0.2282037 0.17224593 0.12686975 0.009131875 0.033279985 0.009985631
-0.10852367 0.03456994 -0.00579656 -0.028010337 -0.17958672 -0.14260904 -0.08428909 0.049369313 0.27786264 -0.17314424 -0.22735825 -0.00080405024 0.004332882 -0.004390035 -0.024592763 0.19714226 0.0525867 -0.00083380815 0.38489938 0.3983782 -0.004642966
0.001039938 0.16665836 -0.066780165 0.23616216 -0.011428117 0.09945855 -0.015293292 -0.054990347 -0.14094771 0.5904845 -0.38729045 0.11203429 0.205684 0.030510778 -0.010330673 -0.12358235 -0.15355253 0.022305131 0.15332623 -0.18287721 0.007966693
0.015528509 0.20368135 -0.18401247 0.046153385 0.24160242 0.12540248 0.021799948 -0.05258429 0.15033261 -0.22314273 -0.022930078 -0.0044059996 -0.16461863 -0.030409595 -0.039794832 -0.2864407 0.19953583 0.080549836 -0.66161215 0.018497385 -0.007843565
0.20719318 -0.055739146 0.06004552 0.1405913 0.05769906 0.037348945 0.13669662 0.08591738 0.029205859 0.115321666 0.06202121 0.09803643 0.016384091 0.04722077 -0.0721654 0.14084886 0.031281948 0.13552125 0.10596972 0.053211242 0.047196507
-0.024144402 -0.3094766 0.31680828 -0.032530203 -0.0024750156 -0.18680173 0.0009737726 0.09363523 -0.17413451 -0.24519224 -0.19439313 0.02382987 -0.050819546 -0.021709865 0.03785633 -0.06287904 -0.031858828 0.12408106 0.1729714 0.353244 -0.019795747
0.01241872 -0.24500127 -0.2729179 0.040057044 0.00683333 -0.09509782 -0.002859512 -0.054986406 0.032677397 0.1279848 -0.52951086 -0.033371292 0.21187593 0.003274692 0.048851885 0.1282233 -0.074031785 0.19680627 -0.13418597 -0.11997793 0.018436726
0.10033098 0.05883136 -0.17749722 0.0586807 -0.076727025 -0.19619109 -0.08909353 -0.09058258 -0.03982615 -0.2659345 -0.18735994 -0.35768956 -0.056848798 -0.27004284 0.013152219 -0.04690765 0.07820536 0.117099434 0.37850136 0.140973 0.009763213
-0.16778748 -0.2659055 -0.0667351 -0.13396946 0.07639383 -0.07355982 0.15012172 -0.027942631 -0.022934254 -0.04473955 0.14625968 0.046374302 -0.15267529 0.11863321 0.18171762 -0.004134881 0.1335732 0.20040452 -0.31178188 -0.04618041 0.16095276
0.10281202 -0.07020828 -0.004440863 -0.004862711 -0.07733259 0.04759334 -0.128051 0.33391878 0.034361053 0.2676159 -0.26400504 0.09453249 -0.080926575 -0.26996225 -0.062319145 0.08402039 -0.16742639 -0.07918962 -0.057766236 0.050394837 0.14105612
0.035786003 -0.18229331 -0.049864642 -0.15400954 0.04016346 0.06754344 -0.21423857 -0.039408065 -0.1297161 -0.06466868 0.100857325 -0.018854272 -0.05025189 0.17080852 0.1305092 0.19883882 -0.6076803 -0.013022668 -0.012465209 0.20686315 0.31441575
0.1598678 0.27763557 0.12162176 0.17242204 0.19575877 0.05583433 -0.19923513 0.34957394 -0.13434689 0.045379765 0.018067775 0.11003209 -0.07814104 0.12818506 -0.11631838 0.20788369 -0.022994578 0.13633059 0.042206272 0.22457704 0.12276737
0.004933262 0.11656145 0.0014616408 -0.0052115815 0.0049503865 0.06270591 0.15656449 0.020267073 -0.018481482 -0.114279956 -0.082481384 -0.002386997 0.047656924 -0.013904952 0.018492414 0.10307493 -0.1169467 0.25967455 0.1769659 -0.1707343 -0.24278022
0.09667287 -0.10508439 -0.038162682 0.24636507 -0.19965176 -0.28062332 -0.056680974 -0.08813222 -0.034399062 -0.030220944 -0.30768746 -0.07086134 -0.0072564413 0.07579565 0.1651209 0.09531434 0.46511728 -0.0129292 -0.0059284433 0.014944136 0.025239509
0.24460816 -0.26741278 -0.051964957 -0.13879222 0.015601634 0.113909304 0.011520473 0.08526421 -0.27129722 0.12781078 -0.05037621 0.0061133374 0.12257383 -0.022116309 0.03723459 0.17880403 0.10553782 0.06725454 0.18524565 -0.10572932 -0.019955976
0.035106648 0.008298343 -0.14946288 0.1287264 0.00039414698 -0.12222569 -0.023905154 -0.105277 0.37735185 -0.13259222 0.04689876 0.3679802 -0.15068664 -0.24821347 0.07118678 -0.007243461 0.14317214 0.021994894 0.09982906 0.09690578 0.10798085
0.008419497 -0.14155713 -0.016589591 0.25344014 0.07126617 0.02733419 -0.014740508 -0.013281654 -0.010643742 0.011684145 -0.6961116 0.14001735 0.09936402 0.018644337 0.027129605 -0.06865587 -0.52718824 0.087875605 0.44514272 0.3616903 -0.011991589
0.02601358 -0.21443634 -0.18671444 -0.03353793 0.15703692 0.015391769 0.11350659 0.15404488 -0.073762 -0.18880033 -0.11324394 0.0041369987 0.07507646 -0.0101011535 -0.30074504 0.14415506 -0.102210194 0.10762447 -0.041357398 -0.24459076 0.0131052295
-0.2053724 0.18379347 -0.18343233 0.015318362 0.05861234 0.11787559 0.01722638 -0.20990553 -0.14129 -0.25441524 -0.26219812 -0.024753163 -0.11277944 0.05011242 -0.09224314 0.054087013 0.10756657 0.28577772 0.051581286 0.15755759 0.06100335
-0.0024926953 -0.0040126303 0.009195847 -0.13013698 -0.25386804 -0.16007026 -0.019764384 -0.011050393 0.017584909 0.008341737 -0.25349012 -0.29968673 -0.32022405 0.0999711 0.0022983882 0.07591999 -0.023089007 0.18292625 -0.4124705 0.23661548 0.013243179
0.015479516 -0.090559475 0.101197235 -0.023521375 -0.102805786 0.06240882 0.002966156 -0.017862638 0.017203072 -0.12341841 -0.24063884 0.1388291 -0.018341504 -0.0018631436 0.033297252 0.17255239 -0.0780714 0.19112413 -0.3225368 -0.12717415 0.001440343
-0.024976633 0.011010187 0.28749084 0.009743055 0.120003864 0.063357405 0.2032112 -0.1295803 0.018842602 0.120830745 -0.24800421 0.17401314 0.08795921 0.030297648 0.007282792 0.03709111 0.05522734 0.3347659 0.18008196 0.04940053 -0.008607788
0.007292431 -0.2751929 -0.083089195 0.17301333 0.012224966 -0.0008724091 0.0034480619 -0.011039311 -0.10230259 -0.09533192 -0.45498672 0.018166838 -0.042397942 -0.00703838 0.047477305 0.4434172 0.34153527 0.1082929 0.029177679 0.035875298 -0.0027293796
-0.058553696 -0.025974868 -0.13374974 -0.070488565 0.07806528 0.015010933 0.3195205 -0.07522829 -0.07746649 0.1170686 -0.17343777 -0.11318266 0.020281838 0.15741217 0.012597831 -0.16672036 0.15341562 0.14626613 0.23638777 -0.004476545 0.1786908
0.024189798 0.34641108 -0.39376736 0.11976467 -0.06767105 -0.06458533 0.03075123 0.078641675 -0.027200265 -0.32756633 -0.22549506 -0.086026125 0.13040778 -0.07207518 -0.098833725 -0.29306138 0.5014276 -0.064946935 -0.11680789 -0.035604972 -0.004467859
-0.06355073 -0.035444736 0.13196966 0.027945345 -0.11825885 -0.011903935 0.15327907 -0.016626744 0.09325724 0.08382151 -0.18162413 -0.3044083 0.05351047 0.16638535 -0.032665137 0.026941044 -0.07230067 0.17101829 0.10018263 0.2782658 0.100872725
-0.011400068 -0.49835 0.18177462 0.14042205 -0.01724717 0.012814634 -0.0019480786 0.024744142 0.09234277 -0.04376463 -0.60323757 0.08028157 -0.008181489 0.016384255 0.045262944 0.33475992 0.40157852 0.045482453 0.016355565 0.06514881 -0.0003928669
-0.10314527 -0.27658284 0.055988178 -0.079271615 -0.062055323 -0.004137638 0.022322865 0.008763001 0.08494286 0.072200336 0.000908561 -0.02738841 -0.03418454 0.13610958 0.22013922 0.019789428 -0.34166184 -0.1984206 0.088989966 0.061154183 -0.0059115374
-0.007391062 0.608255 0.18018381 0.036413945 -0.03610056 -0.029681407 -0.022186901 0.028379224 -0.095903836 0.00149083 0.19456169 0.14819163 -0.016247896 0.016740322 -0.006117951 0.057620816 -0.5208482 -0.06871274 0.05811977 -0.118010655 0.016905652
-0.04199228 -0.11189484 0.2914201 0.19428478 -0.025707258 0.029319467 -0.0054475116 -0.027549446 -0.018318348 0.5085068 -0.3732941 0.11096814 0.06887529 -0.018399183 0.041730836 0.006844708 -0.03361957 0.13307735 -0.015351975 0.021673676 0.0048423517
0.05072218 0.20630185 -0.29824367 0.018455679 -0.112554766 -0.005638936 -0.18046224 0.20563236 -0.21583684 -0.04716374 -0.10314216 0.1059703 0.0054888143 0.053817574 -0.04555932 -0.08049979 0.06857504 0.09763611 -0.04415536 0.043471213 0.07688268
0.15868248 -0.10088713 0.16204104 0.1444435 -0.006968398 -0.0131847365 -0.082433976 0.0799479 -0.11770232 0.25826693 0.05035636 -0.011532429 0.04435186 0.07177462 0.14733994 0.2260712 0.04064358 -0.015848981 0.006995408 -0.09468463 0.025463594
0.004677236 0.066540346 -0.2264905 0.30555362 -0.0123662455 -0.06050052 -0.0033951302 0.038715564 0.00025034783 -0.4386732 -0.3446847 0.13627379 0.004333424 0.0047898525 -0.0019524039 0.07803768 0.25371557 0.07636943 0.047753874 -0.031841945 0.00994833
-0.019282263 -0.065188594 0.21827795 -0.19710235 -0.0100947 -0.06128239 0.008294602 0.042213153 -0.0002941347 -0.14424703 0.22762853 -0.15699919 0.037742738 -0.023924785 0.058030486 0.29178262 -0.58148766 -0.0865695 0.17324558 0.040510435 -0.025437778
-0.041363306 0.15741004 -0.04766504 0.03728369 -0.12500308 0.16924465 -0.042987745 0.1422114 0.23523554 0.059149157 -0.2699924 0.16859354 0.078926675 0.029781155 -0.0538844 0.08266747 0.3246527 0.1462195 0.08515458 -0.010828517 0.08076611
-0.050199542 -0.12370754 -0.1911082 -0.25459135 0.23003998 0.24878232 -0.088508785 -0.34914204 -0.2532928 -0.091085784 -0.23622347 -0.049333233 -0.12747681 0.16911854 -0.018749412 0.0058492967 0.04523375 -0.10006582 0.06753353 0.27696067 -0.037005994
-0.1495146 0.12174918 0.040389117 -0.022819556 0.015235713 -0.0068699536 -0.019078258 -0.10961443 0.19625196 0.04206271 -0.024503548 -0.03395561 0.10129169 0.05003949 0.14918348 0.004978377 -0.23531383 0.33873352 -0.06590652 0.1333128 0.033383325
0.016754929 0.2527968 -0.050726786 0.06460872 -0.013308035 -0.2944992 0.11202025 0.11229078 0.027100062 -0.2644869 -0.06480227 -0.34581676 -0.14427628 0.060478237 -0.13302884 0.024483016 0.07988344 0.10528375 0.093052834 0.20560434 -0.13519625
-0.034279875 0.21022409 -0.020867996 -0.10548552 0.074766 -0.07330901 0.16881713 -0.19603762 -0.008971972 0.016487295 -0.091481976 -0.035085008 -0.25068435 0.15683524 -0.022827363 0.025375057 -0.32195613 0.0369203 0.0635194 0.004831833 -0.23942637
-0.033637643 -0.16407634 -0.073658995 -0.06731928 -0.2547069 -0.023726251 -0.026213067 0.031785194 0.06752031 -0.0825993 -0.26121217 -0.015512325 -0.031760737 -0.07615136 0.014466739 0.13472946 0.011817376 0.17860356 -0.032949097 -0.13442995 -0.0718837
-0.009392179 0.37447736 0.0038911884 -0.36691877 0.028320044 -0.02612349 0.014361963 0.025845805 -0.08767319 0.017456472 0.46636555 0.029069744 -0.024925062 -0.021133296 -0.1122717 0.24157737 0.9720821 -0.44278082 0.13075794 0.0043855137 -0.014362534
-0.0064044353 0.11634931 0.30430642 0.26245305 0.0024676153 -0.11815294 0.017883293 0.007321862 0.14578694 0.5981126 0.10001662 -0.056169398 -0.1476151 0.0050477157 -0.0021331885 -0.1566577 0.58848155 0.10414946 -0.009950278 -0.08346161 -0.041950066
-0.05793697 0.11998082 0.07482613 0.010547111 -0.09841645 -0.01793457 -0.09219152 0.045974437 0.43592605 -0.26269868 -0.020824818 0.0304699 -0.33769757 0.03387997 0.07325882 0.012838416 0.20196974 0.13351925 -0.0006507329 0.12379517 -0.04169976
-0.008178548 -0.17058015 0.029976843 0.120106235 0.011937207 -0.08397287 -0.21727154 0.027197637 0.14231873 0.13865682 -0.2585066 0.01221086 -0.11849679 -0.24467786 -0.012595761 0.215297 0.04789051 0.16167451 0.009143019 -0.020711627 0.2900503
-0.12236389 -0.23801278 -0.10678656 0.073671944 0.078438945 -0.012758302 0.1525598 0.14266865 0.14967886 -0.10603799 -0.23399258 0.25350162 -0.0057274606 0.16435051 0.22906573 0.2219253 0.2563441 0.106007025 0.059035696 -0.04252379 -0.0069773574
0.023197727 -0.08732002 0.038920343 0.14265725 -0.013689269 0.31222048 -0.07625955 -0.054459024 0.18791644 -0.17829555 -0.1771858 -0.19842103 0.023420092 0.09401312 -0.07106604 0.12667814 0.016236179 0.39035788 0.31590703 -0.05566226 -0.007777875
-0.23268902 0.09651142 -0.19989787 0.013573934 0.16312681 -0.09325219 -0.118832 0.0144942375 -0.13780558 0.0040504807 -0.036516838 0.16256115 -0.14995654 -0.067321315 0.07399628 -0.062336784 -0.0026297 0.1126406 0.03031021 0.18838964 -0.29119864
0.010864377 0.21796614 0.11521279 -0.0068390686 0.03457091 -0.20989934 -0.010061824 -0.025964681 -0.17475346 -0.102405265 0.093172625 -0.35994703 -0.20155223 0.038504098 -0.024033586 0.037464865 -0.11474961 0.073460534 0.38089263 0.12695108 -0.0022771682
-0.09875146 -0.2585734 -0.10292121 0.06720395 0.03178053 0.046282552 -0.1735194 0.067458965 -0.34116498 -0.2261177 -0.10882326 -0.008505344 0.034081686 -0.1504036 -0.021514291 -0.1943991 0.20887761 0.17665349 0.122847885 0.06095963 -0.012755782
-0.023031695 0.24294473 0.23869276 -0.06877514 0.043868754 -0.0029789072 0.007882301 0.0701618 0.08840666 -0.24259931 0.19383846 -0.29025888 -0.14649941 -0.0062746243 0.041403748 0.0073742145 0.19768058 0.09756388 0.09402076 -0.05288371 -0.0024489826
0.058407474 0.2115525 0.12459329 0.09356178 -0.030314337 0.17527388 0.009667781 0.11620518 -0.10573137 -0.037379473 -0.027603472 0.025358897 0.3786908 -0.06510947 0.12133122 0.028038487 -0.080287084 0.18075748 0.19414963 -0.39980635 0.08151954
0.0065820557 0.22763719 -0.0016518327 0.083120406 0.009908183 0.11848565 0.006962202 -0.009804644 -0.027062701 0.022024062 -0.39292482 -0.013879203 -0.0023118937 -0.00950352 -0.09104709 0.14704818 0.24441515 0.043486997 -0.008321006 0.18201503 -0.0015363164
-0.036719657 -0.0019122162 -0.052179772 -0.01431736 -0.039041057 0.14829546 0.027144095 0.012430072 -0.015264718 0.07662077 -0.29208645 0.0073367744 0.10031668 -0.1308447 0.043557912 -0.055570535 -0.047776498 0.22216319 0.27733156 -0.18537854 -0.062057197
-0.098678626 0.16783248 -0.0355333 0.19790505 -0.3168917 0.10435835 0.049479056 -0.09304859 0.0059122853 -0.16776207 -0.17788914 -0.1410757 0.12618864 -0.075615175 -0.053387105 0.009818199 -0.11458314 0.039127737 -0.07614063 0.000977642 0.015174184
0.006139512 -0.31867388 -0.10337398 -0.032358292 0.103190675 0.32934663 0.017586106 -0.030793156 -0.06748302 -0.2015099 0.03299095 0.3814854 0.21204217 -0.12030115 0.013848218 -0.14735465 0.14383264 0.2753843 0.0017278924 0.05986466 0.01968219
-0.0010166542 0.38999984 -0.4482858 0.3694801 0.00035703223 0.0024799546 -0.008154808 0.009412426 0.29099932 -0.37856272 -0.009726819 0.006481985 -0.022912389 0.024504298 -0.035020918 0.11645164 -0.36264402 0.1146246 -0.08220419 0.042504814 0.008286332
-0.0064731417 -0.13313493 -0.14390543 0.048078716 0.20035419 0.092582785 -0.00010615286 0.0035472794 -0.22360504 -0.18172318 0.008009148 -0.0069601135 -0.16574048 0.0010081442 0.064435266 -0.009410226 0.07080328 -0.0238638 -0.025183877 -0.08365577 0.035292335
0.15044919 0.0041548708 0.06752966 -0.0036813945 -0.08547083 -0.040392112 -0.044428956 -0.055406768 0.10764086 0.054208882 -0.18386939 -0.19269213 0.038940225 -0.111516275 -0.043534476 0.0014151428 0.3452617 0.12238964 -0.07888735 0.075512245 -0.0021785663
0.0047933306 0.1495645 0.017786838 0.09509143 0.025375526 0.012648733 0.007433344 -0.011072981 0.53150994 -0.0055020596 1.0665613 -0.032555897 0.019375514 -0.0009130525 -0.09959342 0.03438466 1.5238508 -0.28065595 0.08075184 0.010045322 -0.025144087
0.09059798 -0.11991576 -0.26197812 0.017424056 0.059996236 -0.070187986 -0.0815378 0.07191313 0.031087723 -0.052902687 -0.016913999 0.10499115 -0.12973745 -0.057044026 0.18108557 0.098529615 -0.32219765 -0.0057904264 -0.051314786 0.18146032 0.0068299584
-0.020869087 0.21842666 0.13433634 -0.064741075 0.05268107 -0.1314563 0.03782394 0.04373224 -0.08458127 -0.011224264 -0.036064036 0.42926416 0.04872051 -0.103581764 0.016728416 0.2236509 0.216863 0.030793577 0.2950838 0.4439341 -0.015404523
0.17567553 0.23685506 0.26529068 -0.20090902 0.064723395 0.13107696 0.050897464 0.41877055 0.02613113 -0.114956334 -0.05085965 0.04635977 0.27475223 -0.030534564 0.026350414 -0.030778361 0.206344 0.2955035 0.04954281 -0.08178609 -0.04687069
0.049237598 -0.15031883 0.29987952 -0.0898428 -0.17918158 -0.04836412 0.054542493 -0.13716017 -0.37969425 0.21269704 -0.08174247 -0.2318608 0.07655495 -0.11468302 0.069134265 -0.11029416 0.070618674 0.0031651196 0.029769447 0.36547872 -0.013623375
-0.10873867 -0.091039956 0.14333257 0.14259535 0.029179543 -0.013525697 0.011225056 -0.20464471 -0.073295206 -0.11073142 -0.09979373 -0.009142843 -0.033980962 -0.02578338 -0.20787047 0.15372105 -0.17579557 0.06448714 -0.023050077 -0.10739808 0.0059445812
0.011586165 -0.28299686 -0.23063613 0.1352222 0.0135791525 0.052941035 0.011442767 0.029429682 -0.14111525 -0.38280112 -0.5128755 -0.0041118204 0.02669124 -0.014683285 0.05508684 0.28080705 0.2786215 0.035771452 -0.01074214 0.071458004 -0.0075214943
0.00039562074 0.029938037 0.25071353 0.17802931 0.008761644 -0.017633026 -0.0095230965 -0.050509598 0.19213922 0.19411135 -0.42532915 0.018073779 0.00321622 0.027818793 0.04124263 0.3606967 0.11668625 0.20171742 -0.008935133 -0.015902894 0.010985996
-0.0052129864 -0.17836866 -0.055509735 -0.17425568 -0.0051997807 -0.060055748 -0.008996577 0.0065778918 -0.058437455 0.050944146 0.7632086 -0.040890567 -0.05847871 0.0089983195 0.025808949 -0.030222995 -0.38860562 0.51350933 0.046124104 -0.017613389 0.016507331
0.07252224 -0.15043648 0.01907863 -0.028005905 0.0974441 0.11839339 -0.27717447 0.11574656 -0.059874512 0.1006358 -0.008017433 0.12939231 -0.0846697 -0.0948633 0.07720238 0.1371016 0.023428053 0.051150948 0.1218712 -0.0038604792 -0.14039116
0.060234264 0.34479222 0.005094625 -0.12135431 -0.043125343 -0.04571588 -0.03869 -0.059782892 0.30357942 -0.17189738 -0.108078875 -0.04974765 -0.034076616 0.22099453 -0.10998177 0.15519309 0.37478232 0.09342738 0.2986068 0.20932771 -0.0016244649
-0.0022265145 0.02693693 0.03679093 0.26439065 -0.0042080805 0.1048748 -0.010609152 0.0074562007 -0.36949345 0.03604573 -0.14643507 0.23174691 0.035309132 0.016789623 0.04528395 -0.30948862 -0.94202495 0.09924492 -0.19010237 -0.07255674 -0.013642185
-0.023394058 -0.3320891 -0.18174487 0.10930476 -0.065486394 0.18064727 -0.033038694 -0.063992985 -0.1963215 0.0607524 -0.20329747 -0.087778226 -0.13206525 0.06089222 0.003119272 0.07626175 -0.06782269 0.08568213 0.28796 -0.049063135 0.11174096
0.029158816 -0.015419856 0.11349467 0.022469861 0.09720154 0.04791389 -0.06263947 0.08169994 -0.01947172 0.25459483 -0.35722885 -0.19953267 0.1317942 0.04907087 0.07202695 0.1558506 -0.10437576 0.301756 -0.008204256 0.0050735404 -0.040162873
0.004806024 0.011658826 -0.057212755 0.3109902 0.006487087 0.08372559 -0.009764486 0.064177975 0.23356842 -0.52255684 -0.3375486 0.050984096 0.11169882 0.012886899 0.0069941967 -0.018252369 -0.22891043 0.03671781 -0.06405332 -0.09121589 0.001400019
-0.18231262 -0.07604401 0.03666834 0.06000195 0.105208986 -0.038444515 -0.09527667 -0.16065133 -0.029789254 0.076283865 -0.15128659 -0.048151437 0.097897656 0.123033345 -0.023137372 -0.05964236 0.17236091 -0.07810341 -0.10267425 -0.08093259 0.07057371
0.123580605 0.12061691 -0.018201392 -0.02078384 0.017636225 0.052184757 0.008783905 -0.10040958 -0.19418372 0.1986938 -0.2667942 -0.13411225 0.04978252 0.109473005 0.092918925 -0.0022680396 0.16073535 0.21659656 0.004251862 0.082464986 0.04732288
-0.09820241 0.24259119 0.19300841 0.03154836 0.06171863 -0.033871803 -0.11944172 0.21840203 0.26678774 0.29161653 -0.10081115 -0.028235538 -0.015004996 0.017564153 0.108123966 -0.22930484 0.22074234 0.022169584 0.020349931 -0.053744286 0.020621136
-0.1978436 0.16281661 0.23938672 -0.046360448 0.023452414 0.16354302 -0.03144277 0.044670783 0.1667728 0.16915727 -0.038363967 0.017648112 -0.09221089 0.076359786 -0.13463423 0.05214492 0.05632181 0.19812126 0.11094728 -0.08167792 0.10934362
-0.19375362 0.12068768 -0.17496973 -0.053142864 -0.16831446 -0.018150117 -0.057238847 -0.10209805 0.10472592 0.07853044 0.04042075 0.025856232 0.20163682 -0.12604299 0.108637944 -0.0644197 0.03094322 0.1017154 0.18480198 0.045969572 0.24806926
0.15878986 0.05824187 -0.058491994 -0.20378366 -0.18596599 0.06431143 0.19651389 0.027814798 -0.021167006 0.16330555 -0.06641639 -0.09819363 0.11461511 0.123857506 -0.020414092 0.17643149 0.05515281 0.13638179 -0.06098776 -0.10555778 0.020127911
-0.012493017 -0.08133597 -0.007174775 0.038860545 0.029337995 0.045520578 -0.2646558 -0.04310695 -0.14165755 0.14537698 -0.08924242 0.033910975 0.06634211 -0.098075464 0.04495634 -0.12248498 0.13713959 0.101608165 -0.115281984 -0.028389292 0.19449256
0.2313058 0.017801043 0.13206525 0.13750331 -0.07823861 -0.0137002785 0.010491374 -0.17743982 -0.2313356 -0.06062928 0.22841111 0.06557376 -0.13338643 0.08710141 -0.08205135 0.18391758 -0.06568899 0.14056875 0.011370553 0.4287418 -0.060404938
0.0030237678 -0.118123524 0.017106358 0.10562306 -0.012186179 0.12539688 -0.002543326 -0.009876377 -0.0986185 -0.070657015 -0.20350665 0.042327847 0.1764039 -0.0048806593 0.04914999 0.10724178 -0.2503731 0.14801365 0.061187845 -0.07771049 0.00044436846
-0.00502611 0.064910375 0.04364604 -0.0734208 -0.22220665 -0.0032773516 -0.023003006 0.0006781846 0.0946904 0.17233995 -0.025158064 -0.11518099 -0.10543069 0.034477565 -0.00070999644 -0.23322052 -0.009635829 0.07661103 -0.2851223 -0.19271025 0.003295829
0.39099014 -0.14254616 -0.032548808 -0.095653355 0.09565796 0.22288342 0.021554265 -0.00063017104 -0.2405579 0.2678659 -0.2219572 -0.0911297 0.1393122 0.009067272 0.09763345 0.14092062 -0.1292622 -0.07325653 -0.27223486 0.030934611 0.018818006
-0.22085719 -0.18485929 0.032597315 -0.29214138 0.104356416 0.09443932 0.051299337 -0.13173325 0.01831466 0.07385509 0.013391636 0.1051267 0.04139477 -0.025101373 0.15408555 -0.018501272 -0.042676494 -0.13823003 -0.1466777 0.039119378 0.02575368
0.053565614 0.4027615 -0.059142537 0.1825675 0.08470525 -0.022466203 -0.15972169 -0.039614893 0.4003539 0.13915874 -0.12364913 0.049743693 -0.029165156 -0.011419941 -0.23643579 -0.15800312 -0.0038586953 0.0736944 -0.08441889 0.05338691 0.16866109
0.11449362 -0.023701914 -0.04231719 0.24018045 0.026037395 0.16558282 0.15866078 0.029774833 -0.27929643 0.23885031 0.017106272 -0.20896193 0.18844669 0.020690138 -0.21985342 -0.20666583 0.1200513 0.16056156 -0.02132126 -0.05520218 -0.40336934
-0.040325064 0.024231797 0.039054338 -0.022457128 -0.047889393 -0.17094766 0.0925967 0.07427345 -0.058818422 -0.045209203 -0.1998412 0.32394978 -0.11292781 -0.07264451 -0.048896324 0.322118 -0.0036014114 0.23882855 -0.3344218 0.2743229 -0.077882506
-0.2146867 -0.24309354 0.17385913 -0.05841308 0.012268224 -0.12494247 -0.06500401 -0.042112906 -0.20691392 0.19576614 -0.03816454 0.027533587 0.04571238 0.12150892 -0.24109681 -0.07846237 0.016000457 0.2596313 -0.034394734 0.1864925 -0.06545591
-0.15656458 0.16939914 -0.07962897 0.13124938 -0.06330369 0.126859 -0.00045035421 -0.03423244 0.043504357 -0.2608737 -0.18527672 -0.08549864 0.20505638 -0.08469956 0.14205854 0.03608463 -0.05806087 0.08363001 0.13643838 0.03237853 0.111380294
-0.16184081 0.20378847 0.16019373 -0.27022895 0.026233979 0.0237602 -0.18284969 0.055647053 0.19741662 0.20608063 -0.20408355 -0.041341625 0.0057990765 -0.0051652645 0.08261674 -0.043727953 0.11244038 0.19039181 0.16241771 -0.0069826567 0.027829919
0.014597745 0.13747126 -0.0063564507 -0.113742396 -0.046994712 -0.09940774 -0.010674516 0.07408923 0.11890166 -0.93124694 -0.21341363 0.37355936 -0.033992007 0.02747405 -0.00646283 0.113063395 -0.15635486 0.23902658 0.20568013 0.11998219 0.0012045098
-0.20523088 -0.012051528 0.15093361 -0.021161767 0.09424296 0.004647823 0.113356054 -0.0379317 0.10486816 -0.067196466 0.08731146 0.034155745 -0.07413329 -0.020912368 0.02400336 0.07977875 0.10068299 0.08315393 -0.41887057 0.06336076 -0.0023359007
0.023362165 -0.0541664 0.05806102 0.0017980711 0.039673317 0.12063427 -0.17572628 -0.03942136 -0.10802196 0.0064641954 -0.35811535 -0.07156386 0.05231189 -0.093793616 0.00909257 -0.008702516 0.081637874 0.25865987 -0.12010983 0.09538862 0.37017596
-0.22313422 0.015055862 -0.10607306 0.0039576944 0.16816969 0.15582117 0.12224946 0.12812594 -0.19109114 -0.07102388 0.054295488 -0.07561904 0.20242551 0.098270394 0.032740343 0.030777982 0.091607675 -0.066629425 0.013158892 -0.048833482 0.11513513
-0.025452927 -0.13178787 0.1759942 -0.003661876 -0.010012966 0.021758916 0.0733532 0.15368704 0.034988403 0.5639371 -0.22238453 0.10155886 -0.107308485 0.19274074 0.11872187 0.17756602 -0.12047576 0.16828206 0.070970304 0.20981154 0.034260247
0.053382024 -0.032602925 0.069981344 -0.06673332 -0.10623258 0.097762704 -0.23926367 0.08093212 -0.1351521 0.23592669 0.03305251 -0.12525438 0.068106286 -0.21555604 -0.043512046 0.024886953 0.27215832 0.2407762 0.045313746 0.004028402 0.09694147
